// #### Generated By: http://www.cufonfonts.com ####
/*!
 * The following copyright notice may not be removed under any circumstances.
 * 
 * Copyright:
 * Copyright 2001 by Daniel Midgley. All for love and love for all.
 */
Cufon.registerFont({"w":634,"face":{"font-family":"Banksia  Bold","font-weight":700,"font-stretch":"normal","units-per-em":"1000","panose-1":"0 0 7 0 0 0 0 0 0 0","ascent":"800","descent":"-200","cap-height":"6","bbox":"-100 -929.17 1290 246","underline-thickness":"20","underline-position":"-123","unicode-range":"U+0020-U+25CA"},"glyphs":{" ":{"w":310},"!":{"d":"130,8r-69,-4v-10,-35,-14,-76,-12,-123v41,-9,86,-13,138,-11r9,120xm179,-344r2,152r-128,0v8,-169,-3,-334,-8,-501r144,-8","w":241},"\"":{"d":"157,-604r-15,95r-84,-11v-12,-57,-21,-116,-23,-183r131,2xm327,-604r-15,95r-84,-11v-12,-57,-21,-116,-23,-183r131,2","w":371},"#":{"d":"598,-111r-107,-1r-2,120r-106,-2r0,-117r-102,0r0,117r-106,-3r-2,-114r-123,0r3,-108r118,-1r1,-87r-122,0r3,-109r114,0r-5,-156r119,-2r4,157r97,0r-1,-153r119,2r-5,151r105,-1r-2,111r-103,-1r1,87r104,0xm382,-307r-101,0r2,87r99,2r0,-89","w":650},"$":{"d":"519,-245v0,92,-85,160,-169,177r0,77r-106,-4r0,-58v-51,4,-107,3,-167,-3r-27,-102v77,6,142,7,195,2r-3,-128v-113,-32,-169,-85,-169,-158v0,-78,97,-154,170,-167r-2,-70r109,1r-1,51v31,-3,64,-5,100,-6r40,115v-55,-5,-101,-6,-140,-3r1,144v113,33,169,77,169,132xm242,-495v-43,22,-55,66,-1,85xm350,-180v27,-11,44,-29,43,-52v0,-10,-14,-18,-42,-25","w":569},"%":{"d":"722,-357v92,0,168,81,168,176v0,112,-100,193,-211,187v-90,-5,-167,-84,-169,-170v-3,-118,94,-193,212,-193xm262,-659v92,0,168,80,168,175v0,113,-100,193,-211,188v-90,-4,-167,-84,-169,-171v-3,-118,95,-192,212,-192xm782,-191v-4,-41,-47,-89,-103,-60v-92,20,-69,158,17,158v51,0,92,-43,86,-98xm318,-461v15,-52,-21,-93,-58,-100v-16,-3,-69,16,-75,25v-55,52,-15,144,51,141v40,-2,71,-25,82,-66xm231,23v-20,-17,-48,-36,-85,-59v-7,-24,587,-665,553,-631v22,15,57,35,105,59r-297,337v-170,190,-262,288,-276,294","w":940},"&":{"d":"53,-178v-11,-105,25,-183,98,-216v-4,-9,-24,-83,-22,-119v7,-166,73,-186,263,-191v0,0,44,2,159,6r18,105v-86,-3,-137,-4,-152,-4v-137,9,-158,-17,-158,91v0,66,-5,91,82,91v97,0,223,-16,308,-1r-11,110v-15,1,-40,2,-75,3v-4,65,-3,160,9,180v7,11,45,32,112,62r-40,86v-72,-22,-122,-43,-151,-62v-57,33,-106,50,-149,50v-110,0,-181,-12,-211,-40v-70,-66,-69,-41,-80,-151xm444,-306v-69,-3,-240,-9,-252,13v-28,25,-12,76,-12,119v0,16,21,46,29,63v27,10,73,15,138,16v31,1,62,-11,93,-36v3,-79,4,-137,4,-175","w":709},"'":{"d":"157,-604r-15,95r-84,-11v-12,-57,-21,-116,-23,-183r131,2","w":201},"(":{"d":"161,-295v0,284,2,232,125,446r-112,56v-31,-61,-67,-135,-106,-220v-25,-108,-43,-256,-23,-395v9,-64,12,-106,17,-124v5,-23,41,-115,107,-274r116,48v-64,136,-100,221,-109,254v-10,41,-15,111,-15,209","w":311},")":{"d":"150,-295v0,283,-3,232,-125,446r112,56r106,-220v25,-108,43,-256,23,-395v-9,-64,-12,-106,-17,-124v-5,-23,-41,-115,-107,-274r-116,48v64,136,100,221,108,254v11,41,16,111,16,209","w":311},"*":{"d":"350,-531r80,36r-68,99r-72,-43r6,76r-130,2r5,-78r-73,43r-63,-102r76,-33r-75,-33r63,-103r72,42r-5,-78r130,2r-6,77r72,-43r67,100","w":465},"+":{"d":"411,-146r-117,0r0,101r-126,-2r-1,-99r-120,0r-2,-102r120,-1r1,-103r128,1r0,105r119,-5","w":458},",":{"d":"168,-8r-53,108r-80,-61v15,-58,27,-119,37,-182r130,3","w":237},"-":{"d":"401,-239r-364,0r-2,-116r368,-2","w":438},".":{"d":"131,8r-69,-4v-10,-38,-14,-82,-12,-132v41,-10,86,-14,139,-12r8,129","w":247},"\/":{"d":"464,-703r-182,394r-152,354v-18,24,-31,8,-64,-9r-56,-12v0,-11,6,-31,19,-59r308,-695v45,6,69,29,127,27","w":474},"0":{"d":"649,-332v32,207,-131,337,-315,347v-185,10,-353,-194,-262,-393v41,-91,83,-128,190,-160v97,-30,134,-31,219,4v90,37,153,107,168,202xm517,-239v31,-113,-42,-187,-131,-209v-40,-10,-142,32,-160,54v-52,62,-67,117,-38,192v34,86,136,134,232,84v53,-27,79,-55,97,-121","w":697},"1":{"d":"135,16r9,-411r-61,39r-53,-89r130,-97r121,-9v-3,162,-8,348,-13,558v-61,-9,-89,-13,-133,9","w":346},"2":{"d":"307,-463v-113,2,-136,5,-198,75r-57,-102v80,-45,104,-81,240,-77v128,4,153,-4,193,71v37,71,32,147,-11,224v-10,19,-82,74,-217,165r273,2r-29,105r-413,0r-38,-83r308,-223v10,-10,37,-58,35,-82v-6,-64,-13,-77,-86,-75","w":580},"3":{"d":"328,-265v190,-4,269,138,150,262r-75,81v0,12,-287,168,-302,168r-56,-103v50,-5,257,-122,293,-152v17,-15,75,-75,76,-97v0,-38,-43,-57,-130,-57v-42,-1,-65,6,-94,9v-25,3,-52,-21,-52,-44v0,-11,62,-94,185,-247r-246,0r16,-106r407,0r20,46","w":581},"4":{"d":"606,-3r-67,0r2,203r-126,0r0,-200r-322,0r-48,-89r167,-374r115,41r-140,310r229,1r1,-427r124,-19r0,444r80,1","w":666},"5":{"d":"414,-106v14,-74,-193,-64,-260,-48v-27,7,-82,-35,-78,-59r44,-300r16,-38r346,0r31,106r-277,0r-25,178v163,-3,326,6,325,152v0,45,-37,96,-106,158v-63,57,-247,170,-329,203r-56,-103v65,1,370,-191,369,-249","w":581},"6":{"d":"587,-220v0,163,-127,241,-295,237v-147,-4,-247,-78,-247,-220v0,-69,22,-144,71,-224v18,-29,53,-74,106,-131v41,-43,117,-91,223,-149r60,94v-124,70,-164,91,-237,177v122,3,205,24,249,65v47,44,70,94,70,151xm465,-214v0,-113,-122,-127,-265,-121v-34,72,-36,121,-18,179v15,49,65,73,132,71v90,-2,151,-46,151,-129","w":632},"7":{"d":"534,-470v-134,183,-251,393,-401,683r-108,-45r190,-358v53,-95,106,-181,159,-256r-317,2r23,-108r431,-4","w":559},"8":{"d":"310,-712v150,0,235,56,229,200v-2,51,-41,99,-117,144v106,47,186,132,128,263v-39,87,-118,121,-246,122v-168,1,-255,-51,-259,-204v-2,-71,48,-129,145,-176v-79,-46,-118,-97,-118,-154v0,-123,120,-195,238,-195xm418,-505v-2,-92,-20,-98,-111,-98v-68,0,-109,15,-110,94v0,29,33,57,104,83v79,-22,118,-48,117,-79xm303,-87v95,3,137,-27,137,-107v0,-60,-76,-89,-130,-105v-61,15,-144,64,-144,127v0,81,41,82,137,85","w":615},"9":{"d":"45,-315v0,-175,122,-252,301,-245v136,5,221,58,237,172v17,122,-11,213,-80,323v-63,100,-172,202,-329,303r-64,-102v91,-56,178,-118,244,-193v-120,-3,-199,-28,-237,-74v-48,-57,-72,-119,-72,-184xm174,-366v-22,166,71,220,242,201v41,-85,63,-198,4,-258v-34,-34,-155,-30,-197,-6v-16,9,-46,43,-49,63","w":629},":":{"d":"131,8r-69,-4v-10,-38,-14,-82,-12,-132v41,-10,86,-14,139,-12r8,129xm131,-342r-69,-4v-10,-38,-14,-82,-12,-132v41,-10,86,-14,139,-12r8,129","w":247},";":{"d":"146,-342r-69,-4v-10,-38,-14,-82,-12,-132v41,-10,86,-14,139,-12r8,129xm183,-8r-53,108r-80,-61v15,-58,27,-119,37,-182r130,3","w":267},"<":{"d":"397,35r-342,-196r-5,-73r349,-218r88,77r-276,173r285,166","w":546},"=":{"d":"403,-239r-368,0r3,-116r367,-2xm403,-69r-368,0r3,-116r367,-2","w":440},">":{"d":"149,35r342,-196r5,-73r-349,-218r-88,77r276,173r-285,166","w":546},"?":{"d":"271,9r-69,-4v-10,-35,-14,-76,-12,-123v41,-9,87,-13,139,-11r8,120xm50,-646v53,-19,161,-72,269,-66v125,8,139,-10,181,80v39,85,45,96,16,203v-31,115,-15,93,-125,129v-104,34,-78,-9,-72,115r-130,19v-6,-67,-14,-142,1,-184v0,-19,181,-57,186,-65v9,-4,32,-90,28,-106v-1,-19,-18,-64,-30,-71v-107,-15,-178,3,-272,43","w":583},"@":{"d":"537,-155v25,-11,55,-78,53,-131v-5,-108,-30,-140,-98,-165v-25,-9,-62,-10,-109,-10v-139,0,-215,78,-224,203v-2,41,3,70,14,87v43,67,133,94,225,66v5,0,15,-1,28,-4r51,60v-173,85,-431,21,-417,-202v8,-125,63,-221,174,-266v152,-61,362,-21,423,92v38,71,35,213,-8,276v-36,53,-72,81,-110,81v-55,0,-74,-30,-105,-79v-61,23,-152,26,-189,-2v-31,-24,-45,-50,-45,-74v3,-127,50,-205,174,-208v17,0,58,5,123,15v8,5,17,11,31,9v1,74,-2,149,-7,225v6,7,3,26,16,27xm433,-340v-87,-25,-152,12,-133,113v32,28,75,8,130,-2v4,-38,3,-71,3,-111","w":746},"A":{"d":"591,13v-9,-56,-22,-114,-38,-174r-340,-1v-15,61,-28,119,-37,175r-136,-21v9,-44,23,-95,42,-152v-5,-1,-17,-2,-35,-3r3,-108r67,0v44,-127,135,-297,198,-424r136,-7r110,225v80,170,121,289,165,469xm384,-559v-47,81,-92,176,-134,286v96,2,185,3,267,2v-27,-66,-47,-114,-60,-143v-25,-57,-50,-105,-73,-145","w":761},"B":{"d":"514,-389v52,0,103,109,103,141v0,55,-6,124,-30,157v-8,11,-28,35,-65,63v-56,43,-172,35,-321,35v-38,0,-74,3,-110,-3v-3,-7,-5,-25,-5,-53r-1,-644v113,-16,391,-23,435,37v43,35,45,158,18,215xm391,-593v-25,-7,-83,-6,-172,-2v-3,72,-4,131,-5,178r89,0v89,-5,75,13,111,-40v24,-58,38,-120,-23,-136xm484,-174v0,-51,20,-119,-32,-127v-88,-13,-74,-9,-240,-5v1,45,2,114,4,205v113,9,189,5,229,-10v13,-17,26,-38,39,-63","w":677},"C":{"d":"401,13v-203,2,-351,-95,-351,-285v0,-159,77,-308,180,-367v63,-36,177,-58,345,-63r34,105v-279,7,-325,9,-391,165v-21,51,-31,99,-31,144v1,133,74,200,219,202v54,1,124,-14,209,-44r-3,113v-72,20,-142,30,-211,30","w":665},"D":{"d":"331,-709v234,7,334,45,339,247v0,1,-2,39,-5,116v-3,74,-46,181,-88,223v-57,56,-175,115,-290,120v-97,4,-134,14,-197,7v-3,-7,-4,-25,-4,-53r-1,-651v20,-4,257,-9,246,-9xm541,-354v8,-120,20,-136,-15,-199v-26,-48,-94,-41,-173,-47v-16,-1,-61,-2,-136,1r-3,375v1,57,1,98,2,123v111,3,195,-42,256,-89v41,-53,64,-107,69,-164","w":735},"E":{"d":"619,-109r-2,112r-400,-1v-47,6,-85,7,-114,2v-10,-6,0,-86,-1,-81r0,-165r-57,-1r3,-110r55,1r-2,-348r506,-1r2,112r-376,-2v-2,64,-3,144,-3,239v98,0,210,-1,335,-3r-2,112r-333,0r2,144","w":669},"F":{"d":"232,4v-50,-6,-81,5,-126,0r-3,-247r-58,0r3,-111r54,3v0,-213,0,-330,-1,-349r506,-1r2,112r-374,-2v-3,95,-5,174,-5,239r335,-3r-2,112r-333,0"},"G":{"d":"417,11v-208,0,-367,-91,-367,-284v1,-161,81,-308,189,-367v65,-36,184,-57,359,-62r36,105v-289,8,-339,7,-410,165v-23,51,-33,98,-32,143v1,135,76,202,225,202v45,0,92,-7,143,-20r2,-180r-146,0r18,-105r257,-12r-10,375v-84,19,-156,40,-264,40","w":741},"H":{"d":"232,4v-50,-6,-81,5,-126,0r-3,-247r-58,-3r3,-109r50,0r-1,-335v74,-18,22,-11,135,-12r-6,349r332,-3r-8,-346v107,-1,70,-4,135,12r0,641v0,28,-2,46,-5,53v-43,4,-60,-2,-125,0r1,-251r-329,2","w":770},"I":{"d":"85,-25v-1,-10,9,-573,0,-665v39,-17,85,-13,135,-12r-4,706v-23,1,-57,2,-104,2r-27,-2r0,-29","w":306},"J":{"d":"436,-702v6,162,14,558,-21,605v-62,84,-203,125,-355,116r18,-104v116,-4,170,-8,215,-67v19,-25,23,-207,16,-542","w":516},"K":{"d":"692,-40r-105,74r-283,-340v-33,21,-64,39,-91,53r2,258v-68,-6,-77,5,-125,0v-3,-7,-4,-25,-4,-53r-1,-642v73,-18,23,-11,135,-12r-6,322v29,-19,51,-36,67,-50v42,-37,125,-132,249,-285r116,49r-245,280","w":697},"L":{"d":"214,-317r2,218r387,-10r-2,112r-408,1v-39,5,-73,5,-103,0v-3,-7,-4,-25,-4,-53r-1,-641v73,-18,23,-11,135,-12","w":628},"M":{"d":"700,-548v-32,117,-166,444,-194,550r-101,-2v-28,-110,-149,-392,-194,-548v2,6,4,28,0,65v-18,171,-36,337,-48,497r-123,-27v13,-182,43,-486,85,-688r136,-10v80,177,145,343,194,498v52,-161,117,-327,195,-498r136,10v23,129,43,257,58,383v6,51,15,153,27,305r-123,27v-12,-159,-28,-325,-48,-497v-3,-25,-2,-43,0,-65","w":911},"N":{"d":"197,4v-34,-2,-103,2,-132,2v10,-252,10,-484,1,-697v64,-15,50,-13,151,-10v143,245,262,428,357,547r-5,-548v51,-1,96,-5,135,12v-9,212,-8,444,2,697v-33,-1,-80,-3,-143,-8v-111,-104,-234,-267,-367,-490v1,110,1,275,1,495","w":750},"O":{"d":"504,-12v-288,115,-531,-133,-438,-443v41,-135,81,-181,218,-224v110,-34,166,-44,268,-2v95,39,135,75,168,173v31,94,21,159,-5,255v-36,133,-87,193,-211,241xm188,-422v-54,182,55,371,253,311v122,-37,167,-144,167,-285v0,-85,-27,-149,-95,-179v-66,-29,-100,-23,-177,1v-98,30,-119,56,-148,152","w":783},"P":{"d":"217,-189r-2,193v-68,-6,-77,5,-124,0v-3,-7,-5,-25,-5,-53r-1,-649v127,-9,220,-13,280,-13v89,0,153,6,208,44v100,69,49,319,-28,376v-35,26,-143,63,-328,102xm500,-506v0,-93,-58,-78,-119,-98v-13,-3,-67,-3,-164,1r-3,300v135,-31,213,-52,234,-63v32,-17,52,-85,52,-140","w":674},"Q":{"d":"725,-506v49,146,-14,328,-81,412r141,136r-93,79r-145,-143v-62,29,-125,44,-188,44v-231,0,-360,-231,-288,-476v39,-135,81,-182,218,-224v110,-34,166,-45,268,-3v96,40,134,75,168,175xm193,-420v-54,182,55,374,253,313v121,-37,167,-145,167,-287v0,-86,-27,-150,-95,-180v-66,-29,-100,-23,-177,1v-98,30,-119,56,-148,153","w":800},"R":{"d":"365,-711v156,0,264,27,264,194v0,88,-35,187,-84,227v-14,12,-43,25,-88,40r156,220r-113,54r-168,-238v-35,9,-73,17,-114,26r-3,193v-67,-7,-77,5,-124,0v-3,-7,-5,-25,-5,-53r-1,-650v127,-9,221,-13,280,-13xm500,-506v0,-92,-58,-78,-118,-98v-13,-3,-68,-3,-165,1r-3,301v135,-31,213,-52,234,-63v33,-17,52,-86,52,-141","w":674},"S":{"d":"56,15r-26,-109v160,7,316,-2,403,-43v26,-12,39,-33,39,-63v0,-16,-18,-30,-51,-42v-5,-1,-56,-14,-153,-38v-122,-31,-208,-68,-214,-191v-4,-74,84,-162,144,-181v106,-33,211,-51,318,-51r38,123v-49,-1,-77,-1,-84,-1v-187,0,-281,37,-281,110v0,59,164,83,237,101v95,23,177,59,177,153v0,229,-278,249,-547,232","w":633},"T":{"d":"398,4v-67,-6,-75,5,-122,0v-3,-7,-5,-25,-5,-52r1,-551v-61,1,-140,3,-237,6r18,-110r562,-2r14,113v-44,-3,-121,-6,-230,-10","w":664},"U":{"d":"641,-8r-128,22r0,-55v-104,24,-198,75,-313,75v-64,0,-106,-42,-127,-127v-24,-49,-16,-537,-23,-598r134,-25v-10,170,-6,428,1,542v4,60,16,89,33,88v34,-3,134,-27,299,-74r-12,-539r132,0","w":711},"V":{"d":"461,3r-150,0v-123,-224,-218,-453,-286,-688r135,-25v63,243,139,438,226,583v87,-145,163,-340,226,-583r135,25v-68,235,-163,464,-286,688","w":772},"W":{"d":"729,3r-149,0r-60,-115r-59,115r-149,0v-123,-224,-219,-453,-287,-688r131,-24v64,245,141,442,230,589v22,-37,45,-79,68,-128v-61,-135,-115,-280,-160,-437r131,-24v30,117,62,218,95,305v35,-94,67,-196,96,-305r131,24v-44,151,-98,297,-161,437v22,45,45,88,69,128v89,-147,166,-344,230,-589r131,24v-68,235,-164,464,-287,688","w":1041},"X":{"d":"665,-37r-81,71v-47,-47,-127,-131,-240,-254v-89,111,-171,197,-244,260r-75,-79r130,-142v45,-50,82,-95,112,-134v-106,-134,-187,-254,-242,-361r127,-32r60,100v47,78,89,142,126,193v63,-90,125,-188,184,-293r123,43v-55,105,-155,243,-227,349","w":690},"Y":{"d":"663,-683v-16,40,-92,272,-144,335v-22,26,-52,68,-99,119r-1,227r-129,5r-1,-228v-149,-129,-213,-278,-264,-455r141,-23v19,131,55,219,130,315v33,43,51,64,56,64v75,-60,153,-269,169,-378","w":688},"Z":{"d":"657,-108r-27,108r-544,0r-36,-88v42,-46,195,-180,236,-227v55,-61,124,-152,209,-273r-414,2r21,-109r528,-5r24,92r-138,193v-118,153,-112,162,-277,305","w":707},"[":{"d":"265,-684r-92,7v-3,168,-4,289,-4,362v0,25,1,148,2,369r95,0r0,108r-211,2v-3,-7,-4,-25,-4,-54r-1,-880v61,-23,144,-8,220,-15","w":295},"\\":{"d":"-30,-703r183,394r151,354v19,24,32,8,65,-9r55,-12v1,-11,-5,-31,-18,-59r-309,-695v-43,6,-70,29,-127,27","w":444},"]":{"d":"240,164v-75,2,-62,-5,-210,-2r0,-108r95,0v1,-218,2,-341,2,-369v0,-73,-2,-194,-5,-362r-91,-7r-6,-102v88,2,119,8,221,-1r-1,897v0,29,-2,47,-5,54","w":296},"^":{"d":"464,-527r-181,-134r-177,132r-56,-82r189,-149r94,0r178,144","w":561},"_":{"d":"612,111r-560,0r-2,-116r568,-2","w":668},"`":{"d":"306,-642r-248,-124r72,-84r238,126","w":425},"a":{"d":"382,21r0,-30v-93,33,-275,25,-317,-2v-18,-11,-25,-59,-25,-139v1,-75,55,-147,114,-168v32,-12,107,-29,225,-49v-3,-61,-10,-91,-23,-90v-122,16,-120,22,-263,66r-37,-98v121,-46,190,-75,319,-75v61,0,100,35,117,104v20,37,10,414,20,456xm161,-132v0,57,36,41,79,41v36,0,84,-8,145,-25v1,-50,1,-98,0,-144v-96,7,-185,21,-214,63v-7,16,-10,38,-10,65","w":577},"b":{"d":"75,-49r6,-422r-2,-210v37,-14,81,-21,134,-21v3,67,-6,113,-5,173v119,-47,143,-52,262,-27v46,10,71,24,76,37v40,106,40,299,-10,386v-54,95,-257,142,-455,137v-4,-9,-6,-26,-6,-53xm400,-463v-90,-3,-71,4,-192,46r0,309v109,-13,186,-36,216,-81v36,-53,41,-195,10,-262v-3,-7,-14,-11,-34,-12","w":623},"c":{"d":"491,-16v-203,65,-461,14,-456,-204v3,-127,60,-243,143,-290v48,-27,142,-45,281,-50r35,108v-219,1,-254,-6,-304,114v-50,119,-17,245,130,245v43,0,101,-13,174,-40","w":544},"d":{"d":"554,-15v1,35,-51,15,-72,14v-27,4,-45,5,-53,4v-6,-12,-7,-25,-6,-42v-127,48,-147,55,-270,29v-46,-10,-71,-24,-76,-38v-40,-107,-42,-300,10,-386v46,-76,164,-116,331,-133r-3,-115v37,-13,82,-20,135,-19r-2,267r6,230v-1,45,-2,108,0,189xm422,-459v-115,14,-189,41,-223,81v-31,57,-42,195,-10,263v8,18,62,10,90,11v10,0,58,-16,143,-47r0,-308","w":629},"e":{"d":"169,-187v21,90,50,94,155,94v45,0,103,-13,174,-40r-3,117v-127,40,-302,50,-386,-20v-67,-56,-95,-230,-58,-346v32,-101,51,-126,155,-156v88,-25,127,-34,209,0v73,30,81,32,113,114v30,77,30,102,20,190xm435,-325v-9,-47,-20,-89,-68,-111v-46,-21,-70,-12,-119,2v-80,22,-66,31,-85,145","w":588},"f":{"d":"399,-607v-64,3,-116,11,-155,23v-3,1,-4,9,-4,26r135,0r-9,102r-133,-1v-1,25,-1,54,-1,85v0,105,4,232,12,379r-137,2v11,-54,1,-413,4,-466r-74,-1r3,-100r76,0v18,-106,41,-111,156,-134v59,-11,104,-14,163,-5","w":415},"g":{"d":"66,-336v0,-174,101,-224,294,-223v40,0,76,7,107,22v27,-26,59,-38,96,-37r87,84v-57,7,-91,17,-104,28v39,79,15,190,-36,245v-47,51,-118,78,-215,77r-8,19v171,15,207,-2,267,76v64,83,35,154,-68,204v-159,77,-365,38,-471,-50r77,-92v94,77,190,102,315,71v55,-14,72,-30,42,-64v-9,-10,-16,-16,-21,-19v-22,-11,-96,-16,-221,-19v-73,-2,-79,-30,-54,-89r27,-64v-76,-38,-114,-94,-114,-169xm187,-338v-2,54,57,100,116,96v104,-8,141,-30,141,-138v0,-53,-27,-79,-81,-79v-120,0,-172,17,-176,121","w":665},"h":{"d":"200,-520v111,-23,156,-54,242,-54v56,0,93,36,110,108v20,38,10,419,20,462r-131,26v4,-103,5,-191,4,-265v-1,-77,-3,-127,-5,-152v-5,-46,-13,-68,-25,-67v-21,1,-94,19,-218,52r9,410r-128,0r-3,-686r125,-19r0,185","w":632},"i":{"d":"156,-600r-69,-4v-11,-31,-14,-71,-12,-115v41,-10,86,-14,139,-12r8,112xm212,-551r-1,252r6,307v-55,-10,-86,-5,-135,18r-1,-567v59,5,103,2,131,-10","w":297},"j":{"d":"170,-599r-69,-4v-12,-31,-15,-71,-13,-116v41,-9,86,-14,139,-12r8,113xm197,64v-71,80,-107,117,-204,171r-87,-88v87,-47,116,-62,171,-130v32,-22,31,-418,24,-558r127,-8v10,168,8,569,-31,613","w":310},"k":{"d":"188,-184r8,195v-75,-8,-53,-6,-127,-2v-3,-12,-4,-22,-4,-29r3,-397r-3,-264v37,-14,81,-21,134,-21r-9,378v100,-74,138,-120,239,-238r112,47v-41,48,-105,119,-193,212r216,287r-106,74r-206,-284","w":579},"l":{"d":"209,-702r-1,706v-59,-13,-90,1,-125,0v-5,-9,-7,-21,-6,-35r-2,-650v36,-14,81,-21,134,-21","w":285},"m":{"d":"795,21v4,-101,5,-188,4,-261v-1,-76,-3,-126,-5,-150v-5,-45,-13,-68,-25,-67v-24,3,-94,20,-209,53v9,55,3,354,12,400r-131,25v4,-101,5,-188,4,-261v-1,-76,-3,-126,-5,-150v-5,-45,-13,-68,-25,-67v-21,2,-94,19,-218,52r10,405r-129,0r-3,-533r125,-21r0,41v80,-17,154,-53,242,-53v43,0,74,19,93,58v87,-19,166,-58,262,-58v59,0,97,35,114,105v20,38,10,414,20,457","w":991},"n":{"d":"441,21v4,-101,5,-188,4,-261v-1,-76,-3,-126,-5,-150v-5,-45,-13,-68,-25,-67v-21,2,-94,19,-218,52r10,405r-129,0r-3,-533r125,-21r0,41v80,-17,154,-53,242,-53v56,0,93,35,110,105v20,38,10,414,20,457","w":632},"o":{"d":"575,-185v-36,103,-63,121,-150,163v-95,46,-156,52,-249,4v-79,-40,-92,-67,-121,-145v-33,-92,-25,-129,11,-224v38,-99,60,-119,152,-150v84,-29,164,-32,245,3v123,53,165,196,112,349xm456,-224v29,-104,4,-224,-98,-224v-92,0,-152,27,-178,102v-27,78,-23,132,22,201v11,18,60,50,90,46v84,-11,140,-40,164,-125"},"p":{"d":"375,-563v183,0,208,36,208,231v0,261,-112,324,-377,344r-1,184v-34,3,-76,11,-126,26v3,-118,1,-371,-4,-759v35,-15,79,-22,131,-22r-1,42v73,-31,129,-46,170,-46xm463,-332v0,-115,0,-118,-109,-123v-13,0,-63,17,-152,52r3,306v189,-18,258,-49,258,-235","w":633},"q":{"d":"559,234v-110,-62,-128,-112,-118,-244v-120,36,-291,47,-345,-37v-36,-56,-54,-219,-44,-318v1,-19,15,-58,32,-117v11,-39,168,-87,227,-80v23,3,70,16,140,45r1,-36r127,8r-14,595v-1,39,26,71,82,96xm450,-406v-136,-45,-118,-66,-212,-34v-25,8,-38,18,-40,23v-34,78,-25,134,-13,229v12,93,20,108,100,108v45,0,98,-12,159,-37","w":667},"r":{"d":"387,-421v-29,-23,-48,-35,-55,-35v-35,-2,-78,14,-131,47r3,408r-126,0r-3,-532r129,-20r0,31v81,-32,109,-57,229,-19","w":453},"s":{"d":"499,-177v0,182,-227,205,-442,188r-27,-101v36,3,73,5,112,5v154,0,231,-26,231,-79v0,-6,-12,-13,-36,-21v-118,-36,-280,-48,-284,-186v-3,-70,90,-146,151,-161v62,-15,136,-25,225,-28r40,113v-31,-3,-62,-4,-92,-4v-128,0,-192,26,-192,77v0,42,231,87,233,99v54,25,81,58,81,98","w":529},"t":{"d":"331,47v-109,-56,-209,-78,-207,-236r3,-267r-87,-1r3,-100r85,0r2,-116r124,-17r-1,133r139,0r-2,102r-137,0r-1,267v0,56,-1,62,25,88v18,17,61,34,128,50","w":445},"u":{"d":"422,14r0,-41v-80,17,-155,53,-242,53v-56,0,-93,-35,-110,-105v-20,-38,-10,-414,-20,-457r131,-25v-4,101,-5,188,-4,261v1,76,3,126,5,150v5,45,13,68,25,67v21,-2,94,-19,217,-52r-9,-405r129,0r3,533","w":622},"v":{"d":"635,-537v-76,230,-122,335,-238,539r-129,0v-74,-136,-172,-309,-238,-539r131,-22v50,175,95,303,172,443v18,-20,69,-150,73,-156v30,-62,63,-158,98,-287","w":665},"w":{"d":"897,-541v-52,225,-103,374,-207,540r-127,3v-16,-27,-46,-81,-89,-161v-27,47,-62,100,-105,158r-126,3v-29,-49,-73,-126,-126,-237v-31,-65,-63,-167,-102,-302r131,-22v43,175,89,317,163,442v45,-58,81,-115,107,-172v-25,-64,-52,-147,-81,-248r131,-22v42,171,88,314,160,436v60,-111,106,-256,138,-435","w":912},"x":{"d":"489,32r-174,-190v-77,88,-146,152,-207,193r-73,-75v73,-65,140,-134,202,-208r-196,-258r120,-56r149,222v45,-60,94,-133,149,-219r115,40v-51,91,-114,182,-187,274r196,210","w":618},"y":{"d":"337,-116v70,-139,97,-248,113,-441r135,19v-46,348,-158,540,-337,765r-111,-63v61,-67,107,-124,136,-170v-172,-193,-161,-178,-243,-523r131,-26v63,280,48,294,176,439","w":615},"z":{"d":"520,0r-443,0r-37,-82v33,-29,87,-73,154,-140v76,-75,135,-152,183,-226r-311,2r23,-106r431,-4r23,83v-103,150,-203,272,-299,366r305,2","w":589},"{":{"d":"236,-147v-1,51,11,74,12,121v0,61,4,101,13,120v7,15,19,23,38,23v14,0,45,-6,92,-19r-24,111v-82,-1,-199,-22,-215,-62v-13,-33,-20,-107,-21,-177v-15,-45,-7,-137,-25,-179v-11,-25,-34,-54,-71,-87v56,-58,79,-67,82,-160v2,-69,14,-99,14,-172v0,-152,37,-157,234,-172r-5,83v-135,-7,-103,61,-116,184v-12,37,-6,124,-16,159v-7,26,-25,52,-52,79v45,48,61,63,60,148","w":406},"|":{"d":"199,-316r2,341r-1,-4v0,26,-27,24,-61,22v-20,3,-38,4,-54,1v-3,-7,-4,-25,-4,-53r-1,-701v69,-18,20,-11,125,-12","w":286},"}":{"d":"159,-565v-5,-122,7,-149,-113,-152r-5,-83v83,1,198,22,214,62v13,33,21,106,22,177v15,45,7,138,24,178v11,25,34,54,70,87v-48,44,-73,76,-75,96v-9,134,-19,138,-22,237v-4,152,-37,157,-234,172r-25,-111v47,13,78,19,92,19v60,0,46,-56,51,-143v3,-47,12,-69,12,-121v0,-85,15,-99,60,-148v-44,-51,-58,-65,-58,-151v0,-49,-11,-74,-13,-119","w":406},"~":{"d":"277,-701v26,-13,199,108,214,104v23,0,73,-38,150,-114r72,87v-103,87,-176,130,-218,130v-33,11,-201,-108,-227,-101v-35,1,-89,32,-161,93r-62,-92v108,-71,185,-107,232,-107","w":758},"\u00c4":{"d":"591,13v-9,-56,-22,-114,-38,-174r-340,-1v-15,61,-28,119,-37,175r-136,-21v9,-44,23,-95,42,-152v-5,-1,-17,-2,-35,-3r3,-108r67,0v44,-127,135,-297,198,-424r136,-7r110,225v80,170,121,289,165,469xm384,-559v-47,81,-92,176,-134,286v96,2,185,3,267,2v-27,-66,-47,-114,-60,-143v-25,-57,-50,-105,-73,-145xm283,-748r-63,-4v-9,-33,-13,-71,-11,-115v37,-9,78,-13,126,-11r7,112xm482,-748r62,-4v10,-33,14,-70,12,-115v-37,-9,-78,-13,-126,-11r-8,112","w":760},"\u00c5":{"d":"512,-746v-21,66,-81,90,-150,97v-33,3,-91,-27,-104,-48v-34,-52,-34,-86,-14,-148v30,-92,185,-112,250,-43v34,37,36,87,18,142xm322,-782v1,18,16,53,42,51v45,-4,66,-25,66,-76v0,-27,-12,-40,-35,-40v-48,0,-73,17,-73,65xm591,13v-9,-56,-22,-114,-38,-174r-340,-1v-15,61,-28,119,-37,175r-136,-21v9,-44,23,-95,42,-152v-5,-1,-17,-2,-35,-3r3,-108r67,0v44,-127,135,-297,198,-424r136,-7r110,225v80,170,121,289,165,469xm384,-559v-47,81,-92,176,-134,286v96,2,185,3,267,2v-27,-66,-47,-114,-60,-143v-25,-57,-50,-105,-73,-145","w":760},"\u00c7":{"d":"433,25v49,9,118,21,117,76v-1,67,-72,112,-130,115v-33,2,-80,-3,-140,-16r25,-77v37,11,124,24,135,-20v-29,-11,-65,-12,-110,-5r4,-135r102,0xm401,13v-203,2,-351,-95,-351,-285v0,-159,77,-308,180,-367v63,-36,177,-58,345,-63r34,105v-279,7,-325,9,-391,165v-21,51,-31,99,-31,144v1,133,74,200,219,202v54,1,124,-14,209,-44r-3,113v-72,20,-142,30,-211,30","w":665},"\u00c9":{"d":"270,-718r-61,-82r237,-126r72,84xm619,-109r-2,112r-400,-1v-47,6,-85,7,-114,2v-10,-6,0,-86,-1,-81r0,-165r-57,-1r3,-110r55,1r-2,-348r506,-1r2,112r-376,-2v-2,64,-3,144,-3,239v98,0,210,-1,335,-3r-2,112r-333,0r2,144","w":669},"\u00d1":{"d":"328,-902v21,-9,118,69,130,69v20,0,49,-28,87,-83r50,94v-59,64,-103,96,-134,96v-24,8,-119,-68,-138,-65v-34,5,-78,43,-95,70r-43,-112v61,-46,109,-69,143,-69xm197,4v-34,-2,-103,2,-132,2v10,-252,10,-484,1,-697v64,-15,50,-13,151,-10v143,245,262,428,357,547r-5,-548v51,-1,96,-5,135,12v-9,212,-8,444,2,697v-33,-1,-80,-3,-143,-8v-111,-104,-234,-267,-367,-490v1,110,1,275,1,495","w":768},"\u00d6":{"d":"323,-748r-63,-4v-9,-33,-13,-71,-11,-115v37,-9,78,-13,126,-11r7,112xm522,-748r62,-4v10,-33,14,-70,12,-115v-37,-9,-78,-13,-126,-11r-8,112xm504,-12v-288,115,-531,-133,-438,-443v41,-135,81,-181,218,-224v110,-34,166,-44,268,-2v95,39,135,75,168,173v31,94,21,159,-5,255v-36,133,-87,193,-211,241xm188,-422v-54,182,55,371,253,311v122,-37,167,-144,167,-285v0,-85,-27,-149,-95,-179v-66,-29,-100,-23,-177,1v-98,30,-119,56,-148,152","w":783},"\u00dc":{"d":"253,-748r-63,-4v-9,-33,-13,-71,-11,-115v37,-9,78,-13,126,-11r7,112xm452,-748r62,-4v10,-33,14,-70,12,-115v-37,-9,-78,-13,-126,-11r-8,112xm641,-8r-128,22r0,-55v-104,24,-198,75,-313,75v-64,0,-106,-42,-127,-127v-24,-49,-16,-537,-23,-598r134,-25v-10,170,-6,428,1,542v4,60,16,89,33,88v34,-3,134,-27,299,-74r-12,-539r132,0","w":711},"\u00e1":{"d":"204,-592r-62,-79r239,-121r73,81xm382,21r0,-30v-93,33,-275,25,-317,-2v-18,-11,-25,-59,-25,-139v1,-75,55,-147,114,-168v32,-12,107,-29,225,-49v-3,-61,-10,-91,-23,-90v-122,16,-120,22,-263,66r-37,-98v121,-46,190,-75,319,-75v61,0,100,35,117,104v20,37,10,414,20,456xm161,-132v0,57,36,41,79,41v36,0,84,-8,145,-25v1,-50,1,-98,0,-144v-96,7,-185,21,-214,63v-7,16,-10,38,-10,65","w":577},"\u00e0":{"d":"383,-584r-248,-124r72,-84r238,126xm382,21r0,-30v-93,33,-275,25,-317,-2v-18,-11,-25,-59,-25,-139v1,-75,55,-147,114,-168v32,-12,107,-29,225,-49v-3,-61,-10,-91,-23,-90v-122,16,-120,22,-263,66r-37,-98v121,-46,190,-75,319,-75v61,0,100,35,117,104v20,37,10,414,20,456xm161,-132v0,57,36,41,79,41v36,0,84,-8,145,-25v1,-50,1,-98,0,-144v-96,7,-185,21,-214,63v-7,16,-10,38,-10,65","w":577},"\u00e2":{"d":"416,-584r-126,-92r-130,91r-69,-68r169,-114r62,1r157,107xm382,21r0,-30v-93,33,-275,25,-317,-2v-18,-11,-25,-59,-25,-139v1,-75,55,-147,114,-168v32,-12,107,-29,225,-49v-3,-61,-10,-91,-23,-90v-122,16,-120,22,-263,66r-37,-98v121,-46,190,-75,319,-75v61,0,100,35,117,104v20,37,10,414,20,456xm161,-132v0,57,36,41,79,41v36,0,84,-8,145,-25v1,-50,1,-98,0,-144v-96,7,-185,21,-214,63v-7,16,-10,38,-10,65","w":577},"\u00e4":{"d":"198,-624r-63,-4v-9,-33,-13,-71,-11,-115v37,-9,78,-13,126,-11r7,112xm397,-624r62,-4v10,-33,14,-70,12,-115v-37,-9,-78,-13,-126,-11r-8,112xm382,21r0,-30v-93,33,-275,25,-317,-2v-18,-11,-25,-59,-25,-139v1,-75,55,-147,114,-168v32,-12,107,-29,225,-49v-3,-61,-10,-91,-23,-90v-122,16,-120,22,-263,66r-37,-98v121,-46,190,-75,319,-75v61,0,100,35,117,104v20,37,10,414,20,456xm161,-132v0,57,36,41,79,41v36,0,84,-8,145,-25v1,-50,1,-98,0,-144v-96,7,-185,21,-214,63v-7,16,-10,38,-10,65","w":577},"\u00e3":{"d":"219,-753v19,-8,119,62,131,62v20,0,49,-25,88,-75r50,84v-59,58,-104,87,-135,87v-25,7,-120,-61,-140,-59v-34,4,-66,24,-96,64r-43,-101v62,-41,110,-62,145,-62xm382,21r0,-30v-93,33,-275,25,-317,-2v-18,-11,-25,-59,-25,-139v1,-75,55,-147,114,-168v32,-12,107,-29,225,-49v-3,-61,-10,-91,-23,-90v-122,16,-120,22,-263,66r-37,-98v121,-46,190,-75,319,-75v61,0,100,35,117,104v20,37,10,414,20,456xm161,-132v0,57,36,41,79,41v36,0,84,-8,145,-25v1,-50,1,-98,0,-144v-96,7,-185,21,-214,63v-7,16,-10,38,-10,65","w":577},"\u00e5":{"d":"422,-626v-21,66,-81,90,-150,97v-33,3,-91,-27,-104,-48v-34,-52,-34,-86,-14,-148v30,-92,185,-112,250,-43v34,37,36,87,18,142xm232,-662v1,18,16,53,42,51v45,-4,66,-25,66,-76v0,-27,-12,-40,-35,-40v-48,0,-73,17,-73,65xm382,21r0,-30v-93,33,-275,25,-317,-2v-18,-11,-25,-59,-25,-139v1,-75,55,-147,114,-168v32,-12,107,-29,225,-49v-3,-61,-10,-91,-23,-90v-122,16,-120,22,-263,66r-37,-98v121,-46,190,-75,319,-75v61,0,100,35,117,104v20,37,10,414,20,456xm161,-132v0,57,36,41,79,41v36,0,84,-8,145,-25v1,-50,1,-98,0,-144v-96,7,-185,21,-214,63v-7,16,-10,38,-10,65","w":577},"\u00e7":{"d":"363,25v49,9,118,21,117,76v-1,67,-72,112,-130,115v-33,2,-80,-3,-140,-16r25,-77v37,11,124,24,135,-20v-29,-11,-65,-12,-110,-5r4,-135r102,0xm491,-16v-203,65,-461,14,-456,-204v3,-127,60,-243,143,-290v48,-27,142,-45,281,-50r35,108v-219,1,-254,-6,-304,114v-50,119,-17,245,130,245v43,0,101,-13,174,-40","w":559},"\u00e9":{"d":"224,-592r-62,-79r239,-121r73,81xm169,-187v21,90,50,94,155,94v45,0,103,-13,174,-40r-3,117v-127,40,-302,50,-386,-20v-67,-56,-95,-230,-58,-346v32,-101,51,-126,155,-156v88,-25,127,-34,209,0v73,30,81,32,113,114v30,77,30,102,20,190xm435,-325v-9,-47,-20,-89,-68,-111v-46,-21,-70,-12,-119,2v-80,22,-66,31,-85,145","w":618},"\u00e8":{"d":"403,-574r-248,-124r72,-84r238,126xm169,-187v21,90,50,94,155,94v45,0,103,-13,174,-40r-3,117v-127,40,-302,50,-386,-20v-67,-56,-95,-230,-58,-346v32,-101,51,-126,155,-156v88,-25,127,-34,209,0v73,30,81,32,113,114v30,77,30,102,20,190xm435,-325v-9,-47,-20,-89,-68,-111v-46,-21,-70,-12,-119,2v-80,22,-66,31,-85,145","w":618},"\u00ea":{"d":"446,-584r-126,-92r-130,91r-69,-68r169,-114r62,1r157,107xm169,-187v21,90,50,94,155,94v45,0,103,-13,174,-40r-3,117v-127,40,-302,50,-386,-20v-67,-56,-95,-230,-58,-346v32,-101,51,-126,155,-156v88,-25,127,-34,209,0v73,30,81,32,113,114v30,77,30,102,20,190xm435,-325v-9,-47,-20,-89,-68,-111v-46,-21,-70,-12,-119,2v-80,22,-66,31,-85,145","w":618},"\u00eb":{"d":"228,-624r-63,-4v-9,-33,-13,-71,-11,-115v37,-9,78,-13,126,-11r7,112xm427,-624r62,-4v10,-33,14,-70,12,-115v-37,-9,-78,-13,-126,-11r-8,112xm169,-187v21,90,50,94,155,94v45,0,103,-13,174,-40r-3,117v-127,40,-302,50,-386,-20v-67,-56,-95,-230,-58,-346v32,-101,51,-126,155,-156v88,-25,127,-34,209,0v73,30,81,32,113,114v30,77,30,102,20,190xm435,-325v-9,-47,-20,-89,-68,-111v-46,-21,-70,-12,-119,2v-80,22,-66,31,-85,145","w":618},"\u00ed":{"d":"105,-544v49,-1,105,-8,133,-20r-2,270r6,302v-55,-10,-86,-5,-135,18xm69,-592r-61,-79r239,-121r73,81","w":328},"\u00ec":{"d":"93,-544v48,-1,104,-8,133,-20r-2,270r5,302v-55,-10,-87,-5,-135,18xm256,-574r-248,-124r72,-84r238,126","w":325},"\u00ee":{"d":"129,-544v48,-1,104,-8,133,-20r-2,270r5,302v-55,-10,-87,-5,-135,18xm325,-584r-126,-92r-130,91r-69,-68r169,-114r62,1r157,107","w":388},"\u00ef":{"d":"112,-544v48,-1,104,-8,133,-20r-2,270r5,302v-55,-10,-87,-5,-135,18xm74,-624r-63,-4v-9,-33,-13,-71,-11,-115v37,-9,78,-13,126,-11r7,112xm273,-624r62,-4v10,-33,14,-70,12,-115v-37,-9,-78,-13,-126,-11r-8,112","w":347},"\u00f1":{"d":"239,-753v19,-8,119,62,131,62v20,0,49,-25,88,-75r50,84v-59,58,-104,87,-135,87v-25,7,-120,-61,-140,-59v-34,4,-66,24,-96,64r-43,-101v62,-41,110,-62,145,-62xm441,21v4,-101,5,-188,4,-261v-1,-76,-3,-126,-5,-150v-5,-45,-13,-68,-25,-67v-21,2,-94,19,-218,52r10,405r-129,0r-3,-533r125,-21r0,41v80,-17,154,-53,242,-53v56,0,93,35,110,105v20,38,10,414,20,457","w":642},"\u00f3":{"d":"234,-592r-62,-79r239,-121r73,81xm575,-185v-36,103,-63,121,-150,163v-95,46,-156,52,-249,4v-79,-40,-92,-67,-121,-145v-33,-92,-25,-129,11,-224v38,-99,60,-119,152,-150v84,-29,164,-32,245,3v123,53,165,196,112,349xm456,-224v29,-104,4,-224,-98,-224v-92,0,-152,27,-178,102v-27,78,-23,132,22,201v11,18,60,50,90,46v84,-11,140,-40,164,-125"},"\u00f2":{"d":"423,-574r-248,-124r72,-84r238,126xm575,-185v-36,103,-63,121,-150,163v-95,46,-156,52,-249,4v-79,-40,-92,-67,-121,-145v-33,-92,-25,-129,11,-224v38,-99,60,-119,152,-150v84,-29,164,-32,245,3v123,53,165,196,112,349xm456,-224v29,-104,4,-224,-98,-224v-92,0,-152,27,-178,102v-27,78,-23,132,22,201v11,18,60,50,90,46v84,-11,140,-40,164,-125"},"\u00f4":{"d":"575,-185v-36,103,-63,121,-150,163v-95,46,-156,52,-249,4v-79,-40,-92,-67,-121,-145v-33,-92,-25,-129,11,-224v38,-99,60,-119,152,-150v84,-29,164,-32,245,3v123,53,165,196,112,349xm456,-224v29,-104,4,-224,-98,-224v-92,0,-152,27,-178,102v-27,78,-23,132,22,201v11,18,60,50,90,46v84,-11,140,-40,164,-125xm456,-584r-126,-92r-130,91r-69,-68r169,-114r62,1r157,107"},"\u00f6":{"d":"238,-624r-63,-4v-9,-33,-13,-71,-11,-115v37,-9,78,-13,126,-11r7,112xm437,-624r62,-4v10,-33,14,-70,12,-115v-37,-9,-78,-13,-126,-11r-8,112xm575,-185v-36,103,-63,121,-150,163v-95,46,-156,52,-249,4v-79,-40,-92,-67,-121,-145v-33,-92,-25,-129,11,-224v38,-99,60,-119,152,-150v84,-29,164,-32,245,3v123,53,165,196,112,349xm456,-224v29,-104,4,-224,-98,-224v-92,0,-152,27,-178,102v-27,78,-23,132,22,201v11,18,60,50,90,46v84,-11,140,-40,164,-125"},"\u00f5":{"d":"259,-753v19,-8,119,62,131,62v20,0,49,-25,88,-75r50,84v-59,58,-104,87,-135,87v-25,7,-120,-61,-140,-59v-34,4,-66,24,-96,64r-43,-101v62,-41,110,-62,145,-62xm575,-185v-36,103,-63,121,-150,163v-95,46,-156,52,-249,4v-79,-40,-92,-67,-121,-145v-33,-92,-25,-129,11,-224v38,-99,60,-119,152,-150v84,-29,164,-32,245,3v123,53,165,196,112,349xm456,-224v29,-104,4,-224,-98,-224v-92,0,-152,27,-178,102v-27,78,-23,132,22,201v11,18,60,50,90,46v84,-11,140,-40,164,-125"},"\u00fa":{"d":"224,-592r-62,-79r239,-121r73,81xm422,14r0,-41v-80,17,-155,53,-242,53v-56,0,-93,-35,-110,-105v-20,-38,-10,-414,-20,-457r131,-25v-4,101,-5,188,-4,261v1,76,3,126,5,150v5,45,13,68,25,67v21,-2,94,-19,217,-52r-9,-405r129,0r3,533","w":622},"\u00f9":{"d":"403,-574r-248,-124r72,-84r238,126xm422,14r0,-41v-80,17,-155,53,-242,53v-56,0,-93,-35,-110,-105v-20,-38,-10,-414,-20,-457r131,-25v-4,101,-5,188,-4,261v1,76,3,126,5,150v5,45,13,68,25,67v21,-2,94,-19,217,-52r-9,-405r129,0r3,533","w":622},"\u00fb":{"d":"426,-584r-126,-92r-130,91r-69,-68r169,-114r62,1r157,107xm422,14r0,-41v-80,17,-155,53,-242,53v-56,0,-93,-35,-110,-105v-20,-38,-10,-414,-20,-457r131,-25v-4,101,-5,188,-4,261v1,76,3,126,5,150v5,45,13,68,25,67v21,-2,94,-19,217,-52r-9,-405r129,0r3,533","w":622},"\u00fc":{"d":"208,-624r-63,-4v-9,-33,-13,-71,-11,-115v37,-9,78,-13,126,-11r7,112xm407,-624r62,-4v10,-33,14,-70,12,-115v-37,-9,-78,-13,-126,-11r-8,112xm422,14r0,-41v-80,17,-155,53,-242,53v-56,0,-93,-35,-110,-105v-20,-38,-10,-414,-20,-457r131,-25v-4,101,-5,188,-4,261v1,76,3,126,5,150v5,45,13,68,25,67v21,-2,94,-19,217,-52r-9,-405r129,0r3,533","w":622},"\u2020":{"d":"226,-538r2,79r8,106r-109,2r7,-185r-84,9r3,-111r80,12r-7,-87r110,2r-9,85r83,-12r3,111","w":363},"\u00b0":{"d":"324,-540v-20,64,-78,86,-145,93v-32,3,-88,-27,-100,-46v-33,-51,-33,-83,-13,-143v29,-89,178,-107,241,-42v34,35,34,84,17,138xm134,-575v1,20,17,58,47,56v49,-4,71,-27,71,-81v0,-30,-13,-45,-40,-45v-52,1,-78,18,-78,70","w":386},"\u00a2":{"d":"271,-60v-122,-19,-211,-96,-211,-229v0,-166,77,-297,226,-324r2,-69r108,1r-2,52v27,-2,57,-3,90,-4r35,110v-50,-1,-93,-1,-128,1r-10,360v33,-4,79,-17,138,-39r-3,118v-48,14,-94,22,-139,25r-2,64r-106,-3xm283,-501v-89,47,-141,293,-10,330","w":559},"\u00a3":{"d":"116,-409v2,-68,-11,-167,29,-197v42,-55,223,-52,326,-42r19,105v-83,-3,-124,-4,-125,-4v-143,3,-137,1,-133,137r263,-1r8,102r-269,0r2,199v141,9,161,8,305,0r5,105v-34,2,-85,4,-153,6v-51,1,-118,0,-201,-4r-126,21r-10,-107v56,-5,66,8,65,-32r-4,-188r-65,0r-2,-100r66,0","w":596},"\u00a7":{"d":"466,-240v107,53,24,181,-52,214v-72,31,-218,48,-337,37r-27,-103v121,13,241,6,324,-32v13,-6,19,-14,19,-23v0,-5,-11,-10,-34,-15v-125,-21,-285,-22,-286,-157v0,-37,19,-69,57,-97v-76,-48,-74,-145,-2,-204v80,-66,178,-71,321,-80r40,115v-102,-11,-218,-8,-272,34v-22,17,-16,52,17,61v7,3,29,8,65,16v75,17,121,30,139,37v101,39,104,131,28,197xm205,-322v3,34,83,54,123,38v36,-14,61,-12,65,-44v2,-15,-10,-25,-33,-31v-9,3,-75,-21,-110,-1v-32,18,-41,7,-45,38","w":569},"\u2022":{"d":"285,-470v78,2,132,73,132,151v0,128,-77,222,-197,222v-83,0,-150,-76,-150,-159v0,-134,78,-218,215,-214","w":487},"\u00b6":{"d":"302,75v-5,-89,1,-208,0,-303v-141,-34,-187,-58,-228,-181v-29,-87,-44,-228,26,-259v142,-62,243,-48,464,-32v4,13,6,21,6,25v-5,115,-7,235,-7,360v0,35,1,165,2,389v-35,-3,-80,3,-108,1r-2,-689r-44,-3v-2,58,-3,159,-3,302v0,35,1,165,2,389v-34,-3,-81,3,-108,1","w":620},"\u00df":{"d":"633,-179v0,155,-190,213,-363,189r-27,-103v86,12,161,7,223,-22v27,-13,41,-30,41,-51v0,-9,-23,-19,-68,-29v-112,-23,-192,-56,-192,-162v0,-33,18,-63,53,-88v11,-7,44,-25,99,-50v32,-14,44,-57,21,-84v-13,-14,-80,-19,-203,-14v-2,73,-3,165,-3,276v0,35,1,142,2,321v-47,-7,-87,5,-126,0v-3,-7,-4,-24,-4,-52r-1,-642v69,-23,170,-14,255,-14v138,0,215,36,221,153v5,85,-78,148,-167,178v-34,32,-8,53,51,67v66,16,107,27,122,34v44,21,66,52,66,93","w":693},"\u00ae":{"d":"634,-432v31,204,-125,338,-306,347v-180,9,-340,-198,-252,-392v41,-91,79,-128,185,-161v95,-30,128,-32,211,4v88,38,148,108,162,202xm538,-332v35,-132,-48,-225,-154,-249v-50,-11,-160,37,-183,66v-59,74,-77,139,-43,226v39,101,158,159,269,99v61,-33,91,-65,111,-142xm414,-508v79,12,67,168,1,187r54,81r-65,33r-61,-92v-7,2,-14,4,-21,5v-6,27,19,80,-24,76v-17,-2,-29,1,-45,-2v-16,-41,2,-128,-6,-289v109,-6,116,-7,167,1xm322,-447v-1,23,-1,51,-1,82v68,-22,73,0,74,-73v-17,-9,-39,-11,-73,-9","w":687},"\u00a9":{"d":"634,-432v31,204,-125,338,-306,347v-180,9,-340,-198,-252,-392v41,-91,79,-128,185,-161v95,-30,128,-32,211,4v88,38,148,108,162,202xm538,-332v35,-132,-48,-225,-154,-249v-50,-11,-160,37,-183,66v-59,74,-77,139,-43,226v39,101,158,159,269,99v61,-33,91,-65,111,-142xm355,-528r66,2r30,60v-121,5,-133,-7,-159,56v-26,59,-9,125,63,122v19,0,52,-8,98,-24r-2,77v-118,38,-259,7,-253,-115v4,-100,43,-182,157,-178","w":687},"\u2122":{"d":"589,-573v-21,53,-41,109,-59,168r-63,-1v-13,-43,-31,-96,-55,-160v-5,30,-11,86,-19,169r-79,-17v10,-125,23,-226,38,-302r77,-6v29,65,53,122,70,171v17,-49,41,-106,70,-171r76,6v22,125,27,151,38,302r-78,17v-5,-60,-10,-119,-16,-176xm214,-650r1,244v-30,3,-53,2,-75,0v-15,-63,0,-98,-6,-243v-24,1,-57,2,-99,3r12,-72r254,-1r9,74v-19,-1,-51,-3,-96,-5","w":718},"\u00b4":{"d":"119,-642r-61,-82r237,-126r72,84","w":425},"\u00a8":{"d":"124,-704r-63,-4v-9,-33,-13,-71,-11,-115v37,-9,78,-13,126,-11r7,112xm323,-704r62,-4v10,-33,14,-70,12,-115v-37,-9,-78,-13,-126,-11r-8,112","w":447},"\u2260":{"d":"94,-69r-44,0r3,-116r93,0r27,-54r-123,0r3,-116r174,0v8,-17,23,-52,44,-106v43,7,69,30,127,28r-33,75r55,1r-2,118r-111,0r-27,53r140,-1r-2,118r-189,3r-35,78v-17,26,-31,9,-64,-9v-13,-3,-31,-8,-56,-13v-1,-21,10,-44,20,-59","w":470},"\u00c6":{"d":"1015,3r-401,-1v-47,6,-84,7,-113,2v-11,-50,2,-105,-2,-163v-76,-2,-159,-3,-248,-3v-31,63,-57,122,-78,175r-133,-21v19,-45,44,-96,76,-153v-4,0,-15,-1,-33,-3r28,-107r66,0v71,-127,201,-296,294,-423v161,-19,359,-3,534,-7r1,112r-375,-2v-2,65,-3,145,-3,239v98,0,209,-1,334,-3r-1,112r-333,0r1,144r387,-10xm315,-272v95,1,156,2,185,2r1,-268v-57,76,-119,165,-186,266","w":1066},"\u00d8":{"d":"622,-648v106,63,141,241,93,395v-41,132,-86,196,-211,242v-84,31,-145,44,-228,17v-5,10,-11,23,-19,38r1,-4v-3,9,-10,14,-23,14v-7,0,-23,-7,-49,-21v-32,-6,-54,-10,-67,-12v0,-15,11,-42,34,-81v-55,-44,-108,-160,-108,-254v0,-100,42,-235,90,-285v57,-59,237,-130,357,-103r27,-53v47,6,83,30,147,27v-15,31,-24,48,-44,80xm519,-148v81,-57,126,-295,45,-393r-121,220r-112,221v60,22,153,-23,188,-48xm214,-181r223,-416v-65,3,-175,43,-205,77v-30,35,-59,134,-59,201v0,45,14,91,41,138","w":783},"\u221e":{"d":"850,-281v0,56,-66,159,-142,182v-109,33,-197,6,-257,-77v-62,84,-147,113,-259,78v-77,-24,-142,-126,-142,-182v0,-82,51,-161,143,-180v119,-24,193,-2,263,81v65,-87,134,-105,251,-82v93,18,143,98,143,180xm735,-279v-9,-61,-31,-82,-133,-82v-33,0,-60,29,-83,88v36,72,67,80,138,72v48,-5,76,-57,78,-78xm382,-272v-32,-82,-61,-93,-139,-85v-56,5,-78,41,-78,79v0,15,12,35,37,62v10,11,41,18,92,20v31,1,61,-24,88,-76","w":900},"\u00b1":{"d":"457,-216r-117,0r0,101r-126,-2r-1,-99r-121,0r-1,-102r119,-1r2,-103r128,1r0,105r118,-5xm483,21r-433,0r3,-96r432,-2","w":535},"\u2264":{"d":"391,-147r-331,-138r-4,-52r337,-153r85,54r-266,122r275,117xm483,1r-433,0r3,-96r432,-2","w":537},"\u2265":{"d":"176,-147r331,-138r4,-52r-337,-153r-85,54r266,122r-275,117xm84,1r433,0r-3,-96r-431,-2","w":567},"\u00a5":{"d":"282,-234v-143,-123,-208,-276,-257,-446r137,-22v17,131,56,220,131,315v33,43,53,65,59,65v76,-57,157,-271,172,-379r138,18v-16,38,-91,269,-142,332v-22,27,-53,67,-98,117r165,-1r-1,112r-169,2r-1,120r-125,4r0,-123r-170,-3r-1,-110","w":687},"\u00b5":{"d":"583,-564r-7,435v-4,52,56,74,99,89r-88,83v-43,-29,-103,-50,-118,-104v-97,55,-165,86,-263,65r-1,123v-33,2,-75,10,-126,24v1,-169,0,-399,-4,-688v35,-15,79,-22,130,-22r-4,209v0,13,1,91,4,234v15,9,34,14,57,14v153,-4,196,-74,192,-242v-2,-71,-9,-127,1,-199v48,1,91,-6,128,-21","w":650},"\u2202":{"d":"503,-247v10,60,2,128,-27,172v-69,107,-250,120,-346,39v-47,-40,-80,-92,-80,-170v0,-45,22,-98,67,-159v30,-41,74,-71,133,-92v-35,-41,-88,-98,-157,-169r60,-94v102,99,315,273,350,473xm276,-82v61,-1,105,-49,105,-117v0,-53,-18,-110,-55,-169v-72,-14,-155,104,-150,167v6,67,40,120,100,119","w":558},"\u03a3":{"d":"618,-1r-530,0r-38,-121r288,-224r-279,-273r43,-82r467,-2r18,105r-341,-2r233,224r-3,71r-243,192r415,-5","w":698},"\u220f":{"d":"236,-601r-3,553v0,27,-2,45,-5,52v-43,-4,-95,10,-124,-10r2,-307v0,-111,-1,-205,-3,-283v-17,1,-39,3,-68,4r19,-111r561,-2r14,113r-63,-3v-5,137,-8,231,-8,282v0,34,1,140,2,317v-41,-3,-88,4,-124,0v-13,-175,-2,-406,-8,-605v-39,-1,-72,-2,-100,-2v-25,0,-55,1,-92,2","w":664},"\u03c0":{"d":"565,-452v-14,164,-4,182,-5,456v-41,-3,-88,4,-124,0v-13,-145,-1,-310,-8,-461v-39,-1,-72,-2,-100,-2v-25,0,-55,1,-92,2r-3,409v0,27,-2,45,-5,52r-124,0r2,-312v0,-46,-1,-94,-3,-144r-68,4r19,-110r561,-2r14,112","w":664},"\u222b":{"d":"150,-14v66,-7,45,-118,41,-196v-2,-38,-10,-151,-10,-337v0,-119,31,-121,146,-144v58,-12,104,-12,161,-4r-30,91v-48,1,-141,2,-154,21r0,196r11,251v6,171,-39,208,-159,220r-100,-5r-19,-97v75,3,112,4,113,4","w":468},"\u00aa":{"d":"166,-699v125,-35,125,80,119,217v0,19,2,39,5,58r-85,17r0,-13v-19,4,-35,6,-49,6v-95,-4,-103,4,-106,-87v15,-85,53,-95,154,-111v-2,-14,5,-23,-11,-20v-38,7,-51,13,-114,33r-25,-66v23,-9,60,-20,112,-34xm207,-493v0,-15,0,-31,-1,-47v-45,5,-69,13,-73,22v-9,19,-10,31,-4,36v25,-4,47,-1,78,-11","w":340},"\u00ba":{"d":"316,-448v-41,28,-126,61,-189,26v-61,-14,-70,-64,-77,-122v-4,-31,30,-112,49,-124v56,-34,116,-51,182,-23v66,28,90,104,63,187v-9,28,-17,49,-28,56xm254,-494v15,-30,35,-126,-10,-137v-31,-21,-62,-3,-91,16v-21,29,-32,124,14,135v29,14,68,-3,87,-14","w":406},"\u03a9":{"d":"139,-109v-38,-43,-82,-135,-83,-205v-1,-101,44,-232,90,-284v46,-52,205,-110,306,-109v76,1,192,57,229,102v29,35,68,132,68,193v0,127,-29,227,-87,302r104,-2r-4,111r-273,-3r-13,-94v11,-5,30,-24,65,-48v72,-50,105,-267,47,-376v-17,-33,-85,-72,-132,-73v-63,-1,-184,42,-212,75v-31,36,-60,131,-60,201v0,82,69,216,143,215r-5,106r-254,0r-18,-111r89,0","w":816},"\u00e6":{"d":"463,-32v-106,47,-324,61,-398,21v-18,-10,-25,-59,-25,-140v0,-74,55,-146,114,-167v32,-12,107,-29,225,-50r-2,-64v-1,-17,-4,-26,-11,-25v-115,14,-135,21,-273,65r-37,-97v105,-40,203,-76,326,-76v49,0,82,17,101,52v100,-43,174,-69,277,-26v73,31,80,33,112,115v30,76,31,102,21,190r-369,47v12,99,37,94,145,94v45,0,103,-13,174,-40r-3,117v-126,38,-282,46,-377,-16xm780,-325v-9,-47,-21,-87,-68,-111v-56,-28,-138,8,-175,27v-13,12,-20,52,-21,120xm190,-89v73,-6,109,-4,195,-27v1,-51,1,-99,0,-145v-95,9,-185,20,-214,64v-8,25,-29,112,19,108","w":948},"\u00f8":{"d":"141,-36v-68,-36,-99,-131,-106,-217v-5,-69,57,-214,96,-244v52,-39,166,-77,259,-64r35,-76v25,3,81,28,124,25v-13,28,-28,60,-47,97v98,67,116,181,77,317v-33,115,-69,141,-165,184v-63,29,-103,40,-164,27v-5,13,-17,40,-36,79v-33,-21,-72,-34,-117,-39v20,-39,35,-69,44,-89xm302,-97v79,-16,137,-46,155,-133v13,-66,20,-122,-10,-171xm338,-451v-155,-6,-220,171,-142,298"},"\u00bf":{"d":"307,-533r69,4v10,35,14,76,12,123v-41,9,-86,13,-138,11r-9,-120xm528,122v-51,19,-161,72,-269,66v-125,-8,-139,10,-181,-80v-40,-85,-45,-96,-16,-203v31,-115,15,-93,125,-129v104,-34,78,9,72,-115r130,-19v5,66,14,142,-1,183v0,20,-179,57,-185,66v-10,4,-32,90,-29,106v4,19,17,64,31,71v107,14,176,-4,271,-43","w":568},"\u00a1":{"d":"131,-530r68,4v10,35,15,75,13,123v-41,9,-87,13,-139,11r-8,-120xm82,-178r-2,-152r127,0v-7,170,4,335,9,501r-145,8","w":261},"\u00ac":{"d":"693,-61r-111,-9r-3,-168r-523,3r-6,-118r649,-1","w":749},"\u221a":{"d":"341,31r-118,17r-100,-200r-55,20r-18,-109r132,-61r77,171r123,-598r123,37","w":555},"\u2248":{"d":"314,-335v25,-6,72,-65,86,-89r56,84v-61,81,-108,122,-139,122v-27,10,-121,-77,-139,-75v-20,3,-52,28,-95,79r-48,-97v64,-69,114,-103,149,-103v19,-10,121,80,130,79xm314,-135v28,-6,84,-67,100,-91r41,88v-61,80,-107,120,-138,120v-27,10,-121,-77,-139,-75v-30,4,-62,32,-95,89r-48,-107v64,-69,114,-103,149,-103v19,-10,121,80,130,79","w":491},"\u2206":{"d":"613,-1r-529,6r-44,-75r234,-469r129,-10r228,454xm340,-401r-143,295r290,0","w":671},"\u00ab":{"d":"298,-15r-244,-194r-4,-73r250,-215r62,75r-197,172r204,165xm528,-15r-244,-194r-4,-73r250,-215r62,75r-197,172r204,165","w":609},"\u00bb":{"d":"311,-15r244,-194r4,-73r-250,-215r-62,75r196,172r-203,165xm81,-15r244,-194r4,-73r-250,-215r-62,75r196,172r-203,165","w":609},"\u2026":{"d":"131,8r-69,-4v-10,-38,-14,-82,-12,-132v41,-10,86,-14,139,-12r8,129xm361,8r-69,-4v-10,-38,-14,-82,-12,-132v41,-10,86,-14,139,-12r8,129xm591,8r-69,-4v-10,-38,-14,-82,-12,-132v41,-10,86,-14,139,-12r8,129","w":707},"\u00a0":{"w":270},"\u00c0":{"d":"482,-709r-248,-124r72,-84r238,126xm591,13v-9,-56,-22,-114,-38,-174r-340,-1v-15,61,-28,119,-37,175r-136,-21v9,-44,23,-95,42,-152v-5,-1,-17,-2,-35,-3r3,-108r67,0v44,-127,135,-297,198,-424r136,-7r110,225v80,170,121,289,165,469xm384,-559v-47,81,-92,176,-134,286v96,2,185,3,267,2v-27,-66,-47,-114,-60,-143v-25,-57,-50,-105,-73,-145","w":760},"\u00c3":{"d":"318,-892v21,-9,118,69,130,69v20,0,49,-28,87,-83r50,94v-59,64,-103,96,-134,96v-24,8,-119,-68,-138,-65v-34,5,-78,43,-95,70r-43,-112v61,-46,109,-69,143,-69xm591,13v-9,-56,-22,-114,-38,-174r-340,-1v-15,61,-28,119,-37,175r-136,-21v9,-44,23,-95,42,-152v-5,-1,-17,-2,-35,-3r3,-108r67,0v44,-127,135,-297,198,-424r136,-7r110,225v80,170,121,289,165,469xm384,-559v-47,81,-92,176,-134,286v96,2,185,3,267,2v-27,-66,-47,-114,-60,-143v-25,-57,-50,-105,-73,-145","w":760},"\u00d5":{"d":"338,-892v21,-9,118,69,130,69v20,0,49,-28,87,-83r50,94v-59,64,-103,96,-134,96v-24,8,-119,-68,-138,-65v-34,5,-78,43,-95,70r-43,-112v61,-46,109,-69,143,-69xm504,-12v-288,115,-531,-133,-438,-443v41,-135,81,-181,218,-224v110,-34,166,-44,268,-2v95,39,135,75,168,173v31,94,21,159,-5,255v-36,133,-87,193,-211,241xm188,-422v-54,182,55,371,253,311v122,-37,167,-144,167,-285v0,-85,-27,-149,-95,-179v-66,-29,-100,-23,-177,1v-98,30,-119,56,-148,152","w":773},"\u2013":{"d":"499,-239r-460,0r-2,-116r468,-2","w":540},"\u2014":{"d":"599,-239r-560,0r-2,-116r568,-2","w":640},"\u201c":{"d":"239,-606r53,-107r80,60v-16,58,-27,120,-37,183r-130,-3xm69,-606r53,-107r80,60v-16,58,-27,120,-37,183r-130,-3","w":407},"\u201d":{"d":"168,-578r-53,108r-80,-61v15,-58,27,-119,37,-182r130,3xm338,-578r-53,108r-80,-61v15,-58,27,-119,37,-182r130,3","w":407},"\u2018":{"d":"69,-606r53,-107r80,60v-16,58,-27,120,-37,183r-130,-3","w":237},"\u2019":{"d":"168,-578r-53,108r-80,-61v15,-58,27,-119,37,-182r130,3","w":237},"\u00f7":{"d":"401,-139r-364,0r-2,-116r368,-2xm221,5r-55,-4v-8,-31,-12,-65,-10,-106v32,-8,69,-12,111,-10r7,104xm221,-275r-55,-4v-8,-31,-12,-65,-10,-106v32,-8,69,-12,111,-10r7,104","w":438},"\u25ca":{"d":"635,-234r-213,236r-122,3r-244,-233r-6,-74r237,-253r122,-4r232,240xm342,-437r-157,165r174,167r155,-167","w":691},"\u00ff":{"d":"208,-624r-63,-4v-9,-33,-13,-71,-11,-115v37,-9,78,-13,126,-11r7,112xm407,-624r62,-4v10,-33,14,-70,12,-115v-37,-9,-78,-13,-126,-11r-8,112xm337,-116v70,-139,97,-248,113,-441r135,19v-46,348,-158,540,-337,765r-111,-63v61,-67,107,-124,136,-170v-172,-193,-161,-178,-243,-523r131,-26v63,280,48,294,176,439","w":615},"\u2215":{"d":"354,-703r-182,394r-152,354v-18,24,-31,8,-64,-9r-56,-12v0,-11,6,-31,19,-59r308,-695v45,6,69,29,127,27","w":204},"\u00a4":{"d":"578,-289r-326,0v-2,10,-3,21,-4,34r327,-1r-1,103r-309,0v23,45,69,67,139,68v43,1,99,-12,168,-38r-2,107v-111,35,-250,38,-340,-12v-50,-28,-83,-69,-98,-123r-81,-3r-1,-100r75,1v1,-12,3,-24,5,-36r-67,0r-1,-101r100,0v71,-138,144,-159,377,-170r32,100v-177,2,-233,-5,-277,68r285,0","w":629},"\u2039":{"d":"298,-15r-244,-194r-4,-73r250,-215r62,75r-197,172r204,165","w":379},"\u203a":{"d":"81,-15r244,-194r4,-73r-250,-215r-62,75r196,172r-203,165","w":379},"\u2021":{"d":"224,-558r2,53r84,-13r3,101r-82,-10r5,74r-109,2r3,-77r-80,11r3,-101r80,13r1,-53r-84,11r3,-101r79,12v0,-27,-4,-51,-6,-77r110,2r-8,75r82,-12r3,101","w":363},"\u2219":{"d":"131,-222r-69,-4v-10,-38,-14,-82,-12,-132v41,-10,86,-14,139,-12r8,129","w":247},"\u201a":{"d":"168,-8r-53,108r-80,-61v15,-58,27,-119,37,-182r130,3","w":237},"\u201e":{"d":"168,-8r-53,108r-80,-61v15,-58,27,-119,37,-182r130,3xm338,-8r-53,108r-80,-61v15,-58,27,-119,37,-182r130,3","w":407},"\u2030":{"d":"1122,-357v92,0,168,81,168,176v0,112,-100,193,-211,187v-90,-5,-167,-84,-169,-170v-3,-118,94,-193,212,-193xm712,-357v92,0,168,81,168,176v0,112,-100,193,-211,187v-90,-5,-167,-84,-169,-170v-3,-118,94,-193,212,-193xm794,-608r-259,286r-299,335v-19,23,-30,5,-51,-23v-22,-12,-38,-21,-49,-26v3,-11,15,-28,35,-51r462,-513r56,-67v43,20,50,45,105,59xm262,-659v92,0,168,80,168,175v0,113,-100,193,-211,188v-90,-4,-167,-84,-169,-171v-3,-118,95,-192,212,-192xm1182,-191v-4,-41,-47,-89,-103,-60v-92,20,-69,158,17,158v51,0,92,-43,86,-98xm772,-191v-4,-41,-47,-89,-103,-60v-92,20,-69,158,17,158v51,0,92,-43,86,-98xm318,-461v15,-52,-21,-93,-58,-100v-16,-3,-69,16,-75,25v-55,52,-15,144,51,141v40,-2,71,-25,82,-66","w":1261},"\u00c2":{"d":"514,-709r-126,-92r-130,91r-69,-68r169,-114r62,1r157,107xm591,13v-9,-56,-22,-114,-38,-174r-340,-1v-15,61,-28,119,-37,175r-136,-21v9,-44,23,-95,42,-152v-5,-1,-17,-2,-35,-3r3,-108r67,0v44,-127,135,-297,198,-424r136,-7r110,225v80,170,121,289,165,469xm384,-559v-47,81,-92,176,-134,286v96,2,185,3,267,2v-27,-66,-47,-114,-60,-143v-25,-57,-50,-105,-73,-145","w":760},"\u00ca":{"d":"494,-709r-126,-92r-130,91r-69,-68r169,-114r62,1r157,107xm619,-109r-2,112r-400,-1v-47,6,-85,7,-114,2v-10,-6,0,-86,-1,-81r0,-165r-57,-1r3,-110r55,1r-2,-348r506,-1r2,112r-376,-2v-2,64,-3,144,-3,239v98,0,210,-1,335,-3r-2,112r-333,0r2,144","w":669},"\u00c1":{"d":"290,-718r-61,-82r237,-126r72,84xm591,13v-9,-56,-22,-114,-38,-174r-340,-1v-15,61,-28,119,-37,175r-136,-21v9,-44,23,-95,42,-152v-5,-1,-17,-2,-35,-3r3,-108r67,0v44,-127,135,-297,198,-424r136,-7r110,225v80,170,121,289,165,469xm384,-559v-47,81,-92,176,-134,286v96,2,185,3,267,2v-27,-66,-47,-114,-60,-143v-25,-57,-50,-105,-73,-145","w":760},"\u00cb":{"d":"253,-748r-63,-4v-9,-33,-13,-71,-11,-115v37,-9,78,-13,126,-11r7,112xm452,-748r62,-4v10,-33,14,-70,12,-115v-37,-9,-78,-13,-126,-11r-8,112xm619,-109r-2,112r-400,-1v-47,6,-85,7,-114,2v-10,-6,0,-86,-1,-81r0,-165r-57,-1r3,-110r55,1r-2,-348r506,-1r2,112r-376,-2v-2,64,-3,144,-3,239v98,0,210,-1,335,-3r-2,112r-333,0r2,144","w":669},"\u00c8":{"d":"462,-709r-248,-124r72,-84r238,126xm619,-109r-2,112r-400,-1v-47,6,-85,7,-114,2v-10,-6,0,-86,-1,-81r0,-165r-57,-1r3,-110r55,1r-2,-348r506,-1r2,112r-376,-2v-2,64,-3,144,-3,239v98,0,210,-1,335,-3r-2,112r-333,0r2,144","w":669},"\u00cd":{"d":"69,-718r-61,-82r237,-126r72,84xm94,-25v-1,-10,9,-573,0,-665v39,-17,85,-13,135,-12r-4,706v-23,1,-57,2,-104,2r-27,-2r0,-29","w":325},"\u00ce":{"d":"325,-709r-126,-92r-130,91r-69,-68r169,-114r62,1r157,107xm126,-25v-1,-10,9,-573,0,-665v39,-17,85,-13,135,-12r-4,706v-23,1,-57,2,-104,2r-27,-2r0,-29","w":388},"\u00cf":{"d":"74,-748r-63,-4v-9,-33,-13,-71,-11,-115v37,-9,78,-13,126,-11r7,112xm273,-748r62,-4v10,-33,14,-70,12,-115v-37,-9,-78,-13,-126,-11r-8,112xm101,-25v-1,-10,9,-573,0,-665v39,-17,85,-13,135,-12r-4,706v-23,1,-57,2,-104,2r-27,-2r0,-29","w":347},"\u00cc":{"d":"256,-709r-248,-124r72,-84r238,126xm99,-25v-1,-10,9,-573,0,-665v39,-17,85,-13,135,-12r-4,706v-23,1,-57,2,-104,2r-27,-2r0,-29","w":325},"\u00d3":{"d":"330,-718r-61,-82r237,-126r72,84xm504,-12v-288,115,-531,-133,-438,-443v41,-135,81,-181,218,-224v110,-34,166,-44,268,-2v95,39,135,75,168,173v31,94,21,159,-5,255v-36,133,-87,193,-211,241xm188,-422v-54,182,55,371,253,311v122,-37,167,-144,167,-285v0,-85,-27,-149,-95,-179v-66,-29,-100,-23,-177,1v-98,30,-119,56,-148,152","w":783},"\u00d4":{"d":"544,-709r-126,-92r-130,91r-69,-68r169,-114r62,1r157,107xm504,-12v-288,115,-531,-133,-438,-443v41,-135,81,-181,218,-224v110,-34,166,-44,268,-2v95,39,135,75,168,173v31,94,21,159,-5,255v-36,133,-87,193,-211,241xm188,-422v-54,182,55,371,253,311v122,-37,167,-144,167,-285v0,-85,-27,-149,-95,-179v-66,-29,-100,-23,-177,1v-98,30,-119,56,-148,152","w":783},"\u00d2":{"d":"512,-709r-248,-124r72,-84r238,126xm504,-12v-288,115,-531,-133,-438,-443v41,-135,81,-181,218,-224v110,-34,166,-44,268,-2v95,39,135,75,168,173v31,94,21,159,-5,255v-36,133,-87,193,-211,241xm188,-422v-54,182,55,371,253,311v122,-37,167,-144,167,-285v0,-85,-27,-149,-95,-179v-66,-29,-100,-23,-177,1v-98,30,-119,56,-148,152","w":783},"\u00da":{"d":"260,-718r-61,-82r237,-126r72,84xm641,-8r-128,22r0,-55v-104,24,-198,75,-313,75v-64,0,-106,-42,-127,-127v-24,-49,-16,-537,-23,-598r134,-25v-10,170,-6,428,1,542v4,60,16,89,33,88v34,-3,134,-27,299,-74r-12,-539r132,0","w":711},"\u00db":{"d":"484,-709r-126,-92r-130,91r-69,-68r169,-114r62,1r157,107xm641,-8r-128,22r0,-55v-104,24,-198,75,-313,75v-64,0,-106,-42,-127,-127v-24,-49,-16,-537,-23,-598r134,-25v-10,170,-6,428,1,542v4,60,16,89,33,88v34,-3,134,-27,299,-74r-12,-539r132,0","w":711},"\u00d9":{"d":"442,-709r-248,-124r72,-84r238,126xm641,-8r-128,22r0,-55v-104,24,-198,75,-313,75v-64,0,-106,-42,-127,-127v-24,-49,-16,-537,-23,-598r134,-25v-10,170,-6,428,1,542v4,60,16,89,33,88v34,-3,134,-27,299,-74r-12,-539r132,0","w":711},"\u02c6":{"d":"375,-625r-126,-92r-130,91r-69,-68r169,-114r62,1r157,107","w":488},"\u02dc":{"d":"193,-805v21,-9,118,69,130,69v20,0,49,-28,87,-83r50,94v-59,64,-103,96,-134,96v-24,8,-119,-68,-138,-65v-34,5,-78,43,-95,70r-43,-112v61,-46,109,-69,143,-69","w":510},"\u00af":{"d":"403,-716r-371,0r-2,-84r374,-2","w":434},"\u02d8":{"d":"346,-814v8,111,-69,158,-162,167v-76,-10,-139,-72,-134,-164r89,-5v-3,35,23,82,46,87v49,-3,67,-27,67,-83","w":396},"\u02d9":{"d":"131,-687r-69,-4v-10,-38,-14,-82,-12,-132v41,-10,86,-14,139,-12r8,129","w":206},"\u02da":{"d":"334,-632v-21,66,-81,90,-150,97v-33,3,-91,-27,-104,-48v-34,-52,-34,-86,-14,-148v30,-92,185,-112,250,-43v34,37,36,87,18,142xm144,-668v1,18,16,53,42,51v45,-4,66,-25,66,-76v0,-27,-12,-40,-35,-40v-48,0,-73,17,-73,65","w":396},"\u00b8":{"d":"203,25v49,9,118,21,117,76v-1,67,-72,112,-130,115v-33,2,-80,-3,-140,-16r25,-77v37,11,124,24,135,-20v-29,-11,-65,-12,-110,-5r4,-135r102,0","w":370},"\u02dd":{"d":"177,-694r-46,95r-81,-11v8,-65,21,-126,37,-183r130,2xm347,-694r-46,95r-81,-11v8,-65,21,-126,37,-183r130,2","w":437},"\u02db":{"d":"73,168v-40,-38,-15,-124,-22,-195r102,0r3,141v3,13,14,19,35,19v20,0,50,-7,89,-20r35,87v-117,23,-175,30,-242,-32","w":365},"\u02c7":{"d":"288,-621r-82,1r-156,-112r54,-82r142,102r139,-103r47,88","w":482},"\u00a6":{"d":"221,-721r-6,213r2,139v5,36,-75,17,-111,22v-6,-7,-9,-20,-9,-37r1,-297v0,-3,-1,-14,-3,-33v23,-5,65,-7,126,-7xm221,-310r-6,184r2,151v3,15,-6,22,-26,22r-85,0v-6,-7,-9,-18,-9,-35r1,-284v0,-3,-1,-14,-3,-32v45,-8,78,-6,126,-6","w":306},"\u00d0":{"d":"397,-709v234,7,334,46,339,247v0,1,-3,39,-6,116v-3,74,-45,182,-87,223v-57,56,-175,115,-291,120v-98,4,-132,14,-196,7v-11,-78,-2,-199,-5,-289r-64,0r-2,-110r65,0r2,-247v0,-7,-1,-23,-2,-48v14,-20,252,-17,247,-19xm606,-354v8,-119,18,-135,-15,-198v-26,-48,-94,-42,-172,-48v-16,-1,-61,-2,-137,1r1,203r170,-1r-2,112r-172,2v1,41,1,101,2,182v112,3,195,-42,256,-89v41,-53,64,-107,69,-164","w":801},"\u00f0":{"d":"498,-247v50,242,-220,334,-381,213v-103,-78,-82,-203,18,-292v46,-40,89,-71,134,-89r-32,-49r-111,75r-69,-88r103,-74r-73,-75r60,-94r112,104r93,-67r68,91r-82,61v62,73,138,180,160,284xm247,-85v70,19,131,-47,131,-109v0,-41,-15,-84,-44,-130v-65,22,-78,32,-120,79v-54,60,-49,138,33,160","w":553},"\u00dd":{"d":"250,-718r-61,-82r237,-126r72,84xm663,-683v-16,40,-92,272,-144,335v-22,26,-52,68,-99,119r-1,227r-129,5r-1,-228v-149,-129,-213,-278,-264,-455r141,-23v19,131,55,219,130,315v33,43,51,64,56,64v75,-60,153,-269,169,-378","w":687},"\u00fd":{"d":"214,-592r-62,-79r239,-121r73,81xm337,-116v70,-139,97,-248,113,-441r135,19v-46,348,-158,540,-337,765r-111,-63v61,-67,107,-124,136,-170v-172,-193,-161,-178,-243,-523r131,-26v63,280,48,294,176,439","w":615},"\u00de":{"d":"375,-627v179,0,208,34,208,219v0,232,-134,300,-377,315r-1,90v-34,2,-76,10,-126,25v1,-93,0,-326,-4,-699v35,-15,79,-22,130,-22r-1,118v73,-31,130,-46,171,-46xm410,-520v-93,-2,-76,6,-208,53r3,266v117,-11,197,-36,230,-82v34,-48,40,-161,9,-225v-3,-7,-14,-12,-34,-12","w":633},"\u00fe":{"d":"375,-568v183,0,208,36,208,231v0,261,-113,324,-377,344r-1,89v-34,3,-76,11,-127,26r3,-378r-6,-381v35,-15,79,-22,130,-22r-1,138v73,-31,130,-47,171,-47xm463,-336v0,-116,0,-117,-109,-123v-13,0,-63,17,-152,51r3,306v188,-18,258,-48,258,-234","w":633},"\u00ad":{"d":"401,-139r-364,0r-2,-116r368,-2","w":438},"\u00d7":{"d":"305,-191r81,76r-87,70r-78,-73r-94,72r-73,-74r89,-73r-93,-86r84,-71r94,88r91,-78r77,75","w":446},"\u00b9":{"d":"177,-741r-3,384v-57,-10,-68,-5,-124,18r5,-314v0,-11,-2,-34,-5,-67v46,-2,95,-8,127,-21","w":227},"\u00b2":{"d":"50,-676v39,-20,81,-60,181,-60v113,0,127,14,143,113v-6,85,-27,105,-111,158r130,1r-28,98r-280,0r-35,-73r190,-132v18,-12,26,-33,24,-64v-31,-6,-42,-11,-98,1v-11,2,-29,22,-55,60","w":443},"\u00b3":{"d":"169,-458v-26,3,-53,-21,-52,-45v0,-7,31,-50,92,-128r-133,0r16,-101r280,0r21,49r-102,124v111,14,142,107,69,183v-50,52,-48,58,-144,107v-56,29,-94,47,-112,52r-54,-98v65,-15,212,-79,235,-134v-8,-35,-81,-13,-116,-9","w":450},"\u00bd":{"d":"177,-742r-3,404v-57,-11,-68,-5,-124,20r5,-331v0,-12,-2,-36,-5,-71v47,-1,95,-9,127,-22xm585,-249v-12,-12,-79,-3,-97,1v-12,3,-30,24,-56,64r-60,-109v60,-37,74,-62,180,-62v117,0,127,16,143,118v-6,88,-24,111,-110,167r129,1r-28,104r-280,0r-35,-77r190,-139v19,-13,27,-36,24,-68xm518,-703r-183,394r-151,354v-19,24,-32,8,-65,-9r-55,-12v0,-11,6,-31,18,-59r309,-695v43,5,70,29,127,27","w":764},"\u00bc":{"d":"708,-59r-40,0r1,122r-120,0r0,-120r-199,0r-40,-75r117,-273r111,40r-86,199r97,0r1,-278r118,-19r1,296r53,1xm177,-732r-3,404v-57,-10,-68,-5,-124,19r5,-330v0,-12,-2,-36,-5,-71v47,-2,95,-8,127,-22xm508,-703r-183,395r-151,353v-19,24,-32,8,-65,-9v-25,-5,-43,-9,-55,-11v0,-12,6,-32,18,-60r309,-695v43,6,70,29,127,27","w":752},"\u00be":{"d":"882,-59r-40,0r1,122r-121,0r1,-120r-199,0r-40,-76r117,-272r111,40r-86,199r97,0r1,-278r118,-19r0,296r54,1xm691,-703r-182,395r-152,353v-18,24,-31,8,-64,-9v-25,-5,-43,-9,-56,-11v0,-12,6,-32,19,-60r275,-615r33,-80v44,5,70,29,127,27xm169,-451v-26,3,-53,-22,-52,-46v0,-8,31,-52,92,-132r-133,0r16,-103r280,0r21,50r-102,128v111,14,141,109,69,187v-36,38,-57,67,-144,111v-57,29,-94,48,-112,53r-54,-101v64,-16,213,-81,235,-138v-8,-35,-81,-13,-116,-9","w":946}}});


/*!
 * The following copyright notice may not be removed under any circumstances.
 * 
 * Copyright:
 * Generated by Fontographer 4.0
 */
Cufon.registerFont({"w":823,"face":{"font-family":"Banksia  Black","font-weight":900,"font-stretch":"normal","units-per-em":"1000","panose-1":"0 0 9 0 0 0 0 0 0 0","ascent":"800","descent":"-200","x-height":"14","cap-height":"6","bbox":"-100 -938 1480 250","underline-thickness":"20","underline-position":"-123","unicode-range":"U+0020-U+25CA"},"glyphs":{" ":{"w":310},"!":{"d":"227,-16r-75,19r-79,-4v-11,-37,-17,-79,-14,-129v47,-10,99,-14,158,-12xm230,-702r-11,350r3,160r-169,0v8,-169,-3,-335,-8,-501","w":275},"\"":{"d":"198,-701v-5,68,-13,133,-25,194r-102,-13v-13,-57,-22,-117,-25,-184xm368,-701v-5,68,-13,133,-25,194r-102,-13v-13,-57,-22,-117,-25,-184","w":392},"#":{"d":"641,-244r-2,141r-108,-1r-2,113r-145,-4r-1,-108r-61,0r0,110r-146,-4r-2,-106r-124,0r4,-139r118,0r1,-45r-123,0r4,-139r113,0r-5,-146r159,-2r4,147r57,0r0,-143r159,2r-5,140r105,0r-2,141r-103,-1r0,44r105,0xm383,-241r0,-46r-61,0r1,45","w":691},"$":{"d":"60,-436v0,-83,110,-152,189,-173r-1,-71r149,2r-1,46v26,-2,57,-3,93,-4r56,149r-150,-6r1,104v127,37,190,83,190,139v0,87,-105,161,-189,181r0,78r-147,-4r1,-53v-56,3,-103,0,-163,-6r-38,-135v77,6,134,9,202,5r-3,-89v-126,-35,-189,-90,-189,-163xm269,-485v-60,30,-65,48,-1,75xm377,-180v33,-16,54,-35,53,-52v0,-9,-18,-17,-53,-25r0,77","w":636},"%":{"d":"1020,-189v0,109,-101,190,-218,197v-99,6,-202,-86,-202,-181v0,-125,103,-201,233,-201v101,0,187,83,187,185xm470,-475v0,115,-104,191,-218,197v-99,5,-202,-86,-202,-181v0,-125,105,-201,233,-201v101,0,187,83,187,185xm816,-124v37,0,71,-29,66,-72v-4,-32,-38,-61,-78,-40v-34,7,-45,30,-45,57v0,37,22,55,57,55xm256,-410v37,0,71,-26,66,-71v-3,-32,-38,-62,-78,-41v-32,8,-45,31,-45,58v0,36,22,54,57,54xm899,-603v-27,35,-588,625,-606,626v-4,2,-111,-68,-111,-65v51,-103,436,-483,571,-629v21,7,109,63,146,68","w":1070},"&":{"d":"297,-504v0,33,-12,87,52,75v113,1,241,-20,341,3r-13,136v-18,1,-43,2,-75,4v-2,45,0,136,8,142v6,8,45,27,120,60r-55,113v-79,-23,-133,-43,-163,-60v-56,30,-106,45,-149,45v-115,0,-191,-14,-224,-43v-72,-63,-76,-48,-86,-156v-3,-33,-3,-53,-3,-58v0,-67,50,-134,96,-157v-11,-36,-17,-73,-17,-110v0,-169,97,-190,286,-194r172,6r26,138v-77,-2,-267,-13,-305,6v-7,8,-11,25,-11,50xm328,-292v-125,4,-115,-8,-108,108v1,3,8,19,23,46v50,9,153,29,197,-14v2,-57,3,-103,4,-138","w":755},"'":{"d":"187,-701v-5,68,-13,133,-25,194r-102,-13v-13,-57,-22,-117,-25,-184","w":222},"(":{"d":"201,-295v0,287,3,212,133,437r-149,71r-116,-230v-25,-107,-45,-249,-24,-389v9,-62,12,-103,17,-122v5,-23,44,-118,116,-284r154,61v-70,143,-109,229,-116,259v-10,38,-15,104,-15,197","w":359},")":{"d":"158,-295v0,283,-4,215,-133,437r149,71r115,-230v26,-106,46,-249,25,-389v-9,-62,-12,-103,-17,-122v-6,-23,-45,-118,-117,-284r-153,61v69,143,108,229,116,259v10,38,15,104,15,197","w":359},"*":{"d":"460,-500r-80,118r-64,-39r6,68r-152,3r4,-70r-65,38r-74,-121r66,-29r-65,-28r74,-121r64,38r-4,-71r152,3r-6,68r63,-38r80,118r-70,31","w":495},"+":{"d":"433,-262r-2,126r-117,0r0,102r-146,-3r-1,-99r-120,0r-2,-122r120,-1r1,-103r148,1r0,104","w":478},",":{"d":"226,-150r-37,146r-60,119r-94,-72v16,-63,29,-129,40,-197","w":261},"-":{"d":"423,-367r-2,138r-384,0r-2,-136","w":458},".":{"d":"217,-4r-75,22r-78,-4v-11,-44,-17,-93,-14,-150v46,-11,98,-17,158,-14","w":267},"\/":{"d":"514,-705r-31,70r-163,333r-152,336v-20,37,-52,24,-90,2v-23,-5,-46,-10,-68,-13v0,-45,5,-47,20,-80r275,-585v2,-4,15,-34,39,-90v70,9,73,31,170,27","w":524},"0":{"d":"399,-560v158,0,293,106,293,268v0,130,-68,219,-201,276v-209,90,-446,-33,-446,-239v0,-156,87,-247,231,-284v48,-12,89,-21,123,-21xm525,-289v0,-58,-62,-126,-128,-129v-38,-2,-119,26,-136,45v-31,34,-49,67,-49,100v0,78,67,152,149,146v91,-6,164,-63,164,-162","w":737},"1":{"d":"313,11v-100,-15,-107,-15,-172,16r9,-379r-47,29r-73,-115r149,-104r149,-10v-3,158,-8,346,-15,563","w":393},"2":{"d":"50,-482v113,-61,112,-86,267,-85v130,2,157,-4,204,65v47,68,43,161,-4,238v-12,21,-69,63,-170,127r235,1r-41,136r-441,0r-50,-103r316,-212v37,-30,42,-87,15,-114v-27,-9,-132,-1,-154,4v-23,5,-55,31,-96,76","w":632},"3":{"d":"398,-276v117,6,184,67,189,159v-13,75,-61,120,-139,197v-11,20,-299,166,-326,170r-77,-135v110,-33,334,-120,380,-224v-2,-57,-151,-34,-204,-26v-34,5,-73,-27,-72,-61v0,-12,55,-84,164,-216r-229,0r22,-139r438,0r29,66","w":632},"4":{"d":"666,-134r-20,141r-64,0r2,193r-167,0r1,-190r-315,0r-58,-103r178,-380r154,52r-137,287r178,1r1,-403r164,-25r0,426","w":711},"5":{"d":"332,-153v-75,0,-154,44,-212,-7v-21,-18,-36,-34,-33,-52r45,-289r22,-50r374,0r43,139r-287,0r-20,132r56,0v178,0,267,54,267,163v0,80,-108,179,-324,298v-70,39,-117,62,-141,69r-77,-135v74,0,369,-170,380,-224v0,-29,-31,-44,-93,-44","w":632},"6":{"d":"627,-226v0,167,-138,246,-315,243v-156,-2,-267,-80,-267,-227v0,-142,83,-252,183,-350v37,-37,118,-88,244,-153r81,122v-104,54,-156,80,-222,143v182,4,296,79,296,222xm324,-118v84,3,141,-31,141,-103v0,-94,-111,-100,-231,-96v-16,40,-24,62,-23,91v3,81,37,106,113,108","w":672},"7":{"d":"584,-451v-137,175,-264,396,-414,669r-145,-57r200,-359v39,-67,85,-139,139,-215r-304,2r31,-141r463,-4","w":609},"8":{"d":"72,-508v-2,-125,125,-206,258,-204v171,3,254,66,249,209v-2,51,-34,96,-97,135v85,50,131,93,127,169v-8,150,-116,217,-285,216v-179,-1,-279,-52,-279,-214v0,-67,41,-123,124,-167v-65,-39,-97,-87,-97,-144xm418,-497v3,-74,-16,-74,-91,-74v-56,0,-89,7,-90,71v0,19,27,39,85,59v64,-17,96,-35,96,-56xm323,-120v82,0,118,-9,118,-80v0,-38,-42,-65,-111,-82v-84,28,-126,45,-124,106v2,61,40,56,117,56","w":655},"9":{"d":"45,-308v0,-182,135,-263,322,-252v168,9,267,77,257,263v-8,152,-123,316,-236,404v-50,39,-115,86,-200,138r-86,-129v79,-48,170,-98,226,-161v-102,-9,-171,-34,-207,-75v-51,-58,-76,-121,-76,-188xm423,-183v47,-89,59,-232,-79,-232v-71,0,-111,16,-130,61v-20,143,59,185,209,171","w":669},":":{"d":"217,-4r-75,22r-78,-4v-11,-44,-17,-93,-14,-150v46,-11,98,-17,158,-14xm217,-354r-75,22r-78,-4v-11,-44,-17,-93,-14,-150v46,-11,98,-17,158,-14","w":267},";":{"d":"232,-354r-75,22r-78,-4v-11,-44,-17,-93,-14,-150v46,-11,98,-17,158,-14xm241,-150r-37,146r-60,119r-94,-72v16,-63,29,-129,40,-197","w":291},"<":{"d":"553,-51r-134,90r-363,-193r-6,-88r372,-214r119,96r-270,157","w":603},"=":{"d":"446,-377r-2,138r-409,0r4,-136xm446,-187r-2,138r-409,0r4,-136","w":481},">":{"d":"50,-51r135,90r362,-193r6,-88r-371,-214r-119,96r270,157","w":603},"?":{"d":"375,-12r-75,19r-78,-4v-11,-37,-17,-79,-14,-130v47,-10,99,-14,158,-12xm50,-641v62,-21,176,-77,298,-71v133,6,151,-5,198,84v40,77,42,101,18,193v-31,121,-88,116,-206,139v-8,23,-3,51,1,89r-160,24v-5,-67,-13,-166,4,-204v31,-33,120,-41,187,-64v22,-22,30,-92,0,-115v-120,-6,-148,6,-269,47","w":631},"@":{"d":"397,-558v191,5,308,78,309,271v0,87,-42,159,-81,199v-21,20,-43,30,-66,30v-60,0,-69,-29,-109,-87v-42,15,-97,16,-145,17v-58,1,-94,-62,-95,-95v0,-106,9,-139,71,-180v69,-46,110,-31,228,-13v6,4,15,13,29,8r0,26v0,67,-2,133,-7,199v4,7,15,9,14,17v48,-26,58,-164,36,-233v-34,-50,-98,-74,-188,-72v-143,2,-228,83,-224,234v0,34,4,58,13,71v46,74,159,88,258,53r63,67v-150,82,-329,49,-410,-68v-61,-89,-32,-249,33,-332v46,-59,165,-115,271,-112xm433,-332v-77,-22,-130,13,-114,100v29,21,66,3,112,-5v3,-28,2,-63,2,-95","w":766},"A":{"d":"598,16v-11,-61,-23,-117,-37,-167r-309,-1v-13,50,-25,106,-36,168r-176,-26v11,-51,24,-99,39,-143r-29,-2r4,-139r73,0v49,-133,134,-275,199,-401r161,-8v113,216,230,430,286,693xm408,-510v-37,63,-72,135,-105,215r208,1v-41,-94,-75,-166,-103,-216","w":808},"B":{"d":"658,-256v0,57,-9,125,-34,161v-78,111,-206,102,-402,102v-42,0,-81,3,-125,-4v-7,-15,-11,-38,-11,-67r-1,-625v122,-23,420,-26,469,36v60,47,50,199,8,255v46,11,96,110,96,142xm436,-527v1,-46,-40,-39,-93,-39v-21,0,-49,1,-84,2v-2,49,-3,93,-4,132r143,-3v12,-6,44,-79,38,-92xm364,-294r-111,4r3,158v67,4,151,6,196,-7v11,-13,22,-28,33,-45r4,-77v-12,-43,-44,-36,-125,-33","w":718},"C":{"d":"651,-20v-269,80,-601,23,-601,-256v0,-159,83,-306,190,-364v65,-35,188,-58,369,-63r48,138v-289,10,-333,-5,-401,145v-20,46,-29,88,-29,129v0,114,68,172,203,172v51,0,126,-16,226,-49","w":707},"D":{"d":"357,-709v217,-1,342,50,354,234v0,4,-3,47,-6,129v-3,78,-46,180,-92,223v-71,66,-210,123,-358,123v-51,0,-109,10,-158,2v-7,-15,-11,-38,-11,-67r-1,-634v50,-4,97,-7,140,-8v50,-1,94,-2,132,-2xm549,-457v8,-147,-151,-105,-292,-111r-1,434v75,1,179,-35,220,-76v68,-68,67,-139,73,-247","w":776},"E":{"d":"110,2v-15,-23,-8,-66,-8,-94r0,-137r-57,-1r4,-142r55,1r-3,-328v64,-2,109,-3,136,-3r411,1r2,144r-377,-2v-1,51,-2,114,-2,189v83,0,195,-1,335,-4r-2,144r-333,1r1,97r388,-9r-2,144r-419,-1v-46,5,-88,6,-129,0","w":710},"F":{"d":"271,6v-78,-10,-95,5,-164,-4r-3,-232r-59,0r4,-144v22,1,40,2,54,3r-2,-328v63,-2,109,-3,139,-3r408,1r2,144r-375,-2v-3,73,-4,136,-5,189v78,0,190,-1,336,-4r-2,144r-334,0","w":675},"G":{"d":"437,11v-217,2,-385,-90,-387,-288v-1,-160,88,-307,199,-364v67,-35,194,-57,383,-62r50,138v-195,0,-310,14,-345,41v-52,40,-105,145,-105,232v0,115,68,172,204,172v39,0,80,-5,125,-15r1,-136r-150,0r25,-137r294,-13r-10,390v-125,28,-219,42,-284,42","w":781},"H":{"d":"559,-375r-9,-277r1,-50v84,0,115,-5,175,18v-8,133,3,563,-2,686v-65,-3,-101,4,-169,1r1,-236r-288,1r3,238v-78,-10,-95,5,-164,-4r-3,-233r-59,-2r4,-140r50,0v0,-175,-1,-279,-2,-311v59,-23,90,-19,175,-18v1,43,1,69,1,77r-7,253","w":811},"I":{"d":"261,-702v-7,298,-9,521,-5,668r1,40r-126,0r-44,-3r-2,-45r4,-409v1,-91,-1,-169,-4,-233v75,-23,59,-20,176,-18","w":346},"J":{"d":"484,-704v6,160,9,578,-25,606v-67,86,-213,124,-394,116r25,-134v121,-7,165,-3,215,-56v22,-54,17,-362,12,-521","w":563},"K":{"d":"255,-415v90,-65,130,-124,290,-305r154,63r-251,274r294,332r-138,92r-284,-324r-66,37r2,214v0,11,-1,24,-3,40v-71,-8,-97,2,-156,-3v-7,-16,-11,-39,-11,-68r-1,-622v68,-23,72,-19,175,-18","w":757},"L":{"d":"254,-318r2,186r388,-9r-2,144r-427,1v-41,4,-80,4,-118,-2v-7,-15,-11,-38,-11,-67r-1,-619v68,-23,72,-19,175,-18r1,54v4,66,-8,274,-7,330","w":669},"M":{"d":"914,-15r-163,33v-11,-99,-25,-249,-44,-448r-165,432r-130,-1v-11,-34,-35,-97,-70,-188r-91,-232r-48,437r-163,-33v22,-259,52,-487,90,-685r165,-12v74,157,135,300,182,431v49,-137,109,-280,182,-431r165,12v37,193,67,421,90,685","w":954},"N":{"d":"65,-684v55,-24,113,-19,182,-17v77,125,128,207,155,247v59,89,116,168,172,237r1,-101v4,-106,-7,-244,-6,-384v105,-1,105,-5,175,18r-1,619v0,29,-4,52,-11,67v-38,4,-133,1,-164,-4v-145,-123,-213,-229,-333,-411r1,379v0,7,2,20,5,40v-77,-9,-101,3,-164,-4v-7,-15,-11,-38,-11,-67","w":809},"O":{"d":"531,-12v-295,113,-562,-124,-465,-442v42,-138,92,-183,232,-225v113,-34,174,-44,281,-2v98,38,141,72,177,169v35,93,25,161,-2,259v-37,134,-97,193,-223,241xm229,-420v-56,163,47,331,228,278v108,-32,151,-129,151,-251v0,-70,-22,-125,-80,-151v-64,-28,-97,-21,-171,2v-86,26,-101,42,-128,122"},"P":{"d":"389,-711v177,0,277,31,280,201v2,91,-39,189,-90,230v-35,28,-142,61,-321,98r-5,187v-75,-6,-94,2,-165,-3r-3,-700v139,-9,241,-13,304,-13xm492,-545v-40,-22,-143,-37,-235,-27r-3,243v119,-26,187,-44,205,-53v28,-14,42,-53,42,-118v0,-26,-3,-41,-9,-45","w":714},"Q":{"d":"761,-508v54,141,-7,312,-70,403r144,132r-124,100r-148,-139v-61,26,-123,39,-184,39v-236,0,-384,-226,-308,-478v41,-138,90,-187,232,-228v115,-33,175,-43,282,-2v95,37,139,77,176,173xm232,-410v-51,164,51,331,230,276v109,-33,151,-130,151,-256v0,-71,-23,-126,-80,-152v-64,-29,-90,-23,-166,0v-91,27,-108,44,-135,132","w":855},"R":{"d":"669,-510v0,129,-46,236,-160,265r154,206r-150,69r-169,-229r-86,18r-5,188r-167,-3r-1,-702v139,-9,241,-13,304,-13v178,0,280,32,280,201xm492,-544v-42,-24,-141,-38,-235,-27r-3,243v119,-26,187,-44,205,-53v28,-14,42,-54,42,-119v0,-26,-3,-41,-9,-44","w":714},"S":{"d":"536,-45v-103,60,-289,77,-471,59r-35,-140v147,5,340,0,420,-39v17,-9,27,-21,27,-42v0,-9,-13,-15,-38,-22v-159,-46,-375,-49,-380,-235v-2,-80,93,-171,158,-190v107,-31,220,-49,339,-49r51,155r-105,-2v-179,0,-268,29,-268,86v0,44,168,63,229,79v123,30,185,84,185,162v0,76,-37,135,-112,178","w":678},"T":{"d":"435,5v-71,-6,-90,2,-159,-3r-1,-568r-240,6r25,-143r294,1v46,0,147,-1,303,-4r19,147v-47,-3,-125,-6,-234,-10r1,535v0,12,-3,25,-8,39","w":711},"U":{"d":"256,-118v18,0,212,-51,262,-65r-12,-517r172,0r5,692r-168,26r0,-50v-97,21,-186,66,-293,66v-75,0,-124,-45,-147,-135v-19,-16,-22,-577,-25,-588r176,-31v-4,98,-8,185,-6,260r6,276v3,44,13,66,30,66","w":753},"V":{"d":"499,3r-175,0v-127,-220,-226,-448,-299,-685r175,-31v62,226,132,405,211,536v79,-131,150,-310,212,-536r175,31v-73,237,-172,465,-299,685"},"W":{"d":"766,3r-172,0r-49,-86v-13,26,-29,55,-47,86r-173,0v-127,-220,-227,-448,-300,-685r171,-30v63,227,134,408,215,542v15,-25,31,-53,46,-84v-60,-125,-114,-268,-163,-428r171,-30v28,101,55,186,80,256v28,-73,55,-159,82,-256r171,30v-47,155,-102,297,-165,428v15,29,31,57,47,84v81,-133,153,-314,215,-542r172,30v-73,237,-173,465,-301,685","w":1092},"X":{"d":"722,-50r-110,91v-46,-43,-125,-122,-238,-237v-85,97,-167,178,-246,243r-101,-101v62,-63,107,-109,135,-140v44,-47,80,-87,109,-122v-102,-123,-184,-241,-246,-355r166,-40v31,51,89,140,176,267v57,-79,116,-168,175,-268r160,53v-35,63,-111,176,-230,340","w":747},"Y":{"d":"210,-706v5,136,92,288,168,361v68,-65,132,-248,150,-359r187,23v-48,115,-84,248,-153,341v-21,29,-53,66,-98,112r-1,226r-169,5r-1,-227v-137,-124,-213,-249,-268,-454","w":740},"Z":{"d":"707,-140r-38,140r-573,0r-46,-106r244,-224v52,-55,114,-130,186,-226r-400,1r29,-140r559,-5r31,109r-142,188v-90,112,-133,175,-242,261","w":757},"[":{"d":"312,-786r-7,135r-91,6v-3,154,-5,264,-5,330v0,24,1,136,2,335r95,0r0,143r-254,-1r-2,-936v48,-5,190,-11,262,-12","w":337},"\\":{"d":"20,-705r31,70v28,69,137,273,163,333r152,336v21,37,52,24,90,2v23,-5,46,-10,68,-13v-2,-49,0,-37,-20,-80r-275,-585v-2,-4,-15,-34,-39,-90v-69,9,-74,31,-170,27","w":544},"]":{"d":"285,162r-254,1r0,-143r95,0r2,-335v0,-66,-1,-176,-4,-330r-91,-6r-8,-135v111,2,127,8,262,-3","w":337},"^":{"d":"564,-625r-66,106r-187,-118r-182,116r-79,-98r210,-141r107,0","w":614},"_":{"d":"639,-17r-7,138r-580,0r-2,-136","w":664},"`":{"d":"391,-727r-74,98r-267,-133r86,-100","w":441},"a":{"d":"382,25r0,-27v-90,27,-277,16,-309,-11v-46,-40,-45,-182,-2,-242v26,-36,56,-62,95,-77v32,-11,104,-26,216,-45r11,-47v0,-3,-2,-5,-5,-4v-111,12,-139,22,-287,66r-50,-124v112,-40,217,-78,343,-78v72,0,113,39,137,111v16,49,10,395,23,447xm385,-242v-107,10,-165,26,-176,48v-1,1,-17,76,-5,78v38,-5,120,-2,182,-22v0,-36,0,-71,-1,-104","w":619},"b":{"d":"249,-547v104,-41,147,-39,253,-12v50,13,78,28,83,43v43,105,42,303,-13,383v-62,89,-261,134,-429,134v-19,0,-41,0,-66,1v-1,-27,-2,-49,-2,-67r6,-399r-2,-212v47,-17,105,-26,174,-26v3,50,-3,115,-4,155xm437,-422v-12,-26,-43,-16,-73,-16v-9,0,-48,12,-116,37r0,259v93,-13,153,-35,181,-67v25,-46,34,-155,8,-213","w":663},"c":{"d":"530,-19v-218,68,-495,23,-495,-204v0,-128,65,-241,152,-288v50,-27,152,-45,306,-50r49,140v-113,1,-239,-13,-286,40v-17,19,-48,107,-48,146v0,75,40,112,121,112v48,0,117,-15,206,-46","w":592},"d":{"d":"589,-700r-1,271r5,430v-60,0,-105,5,-165,-1v-1,-7,-2,-16,-4,-29v-112,42,-149,43,-261,14v-52,-13,-80,-29,-85,-43v-43,-104,-41,-302,13,-383v48,-73,163,-112,327,-131v-2,-38,-3,-73,-3,-105v48,-17,107,-24,174,-23xm234,-364v-30,51,-43,191,10,229v71,3,124,-22,178,-40r0,-256v-97,13,-160,36,-188,67","w":669},"e":{"d":"215,-187v16,56,55,64,129,64v42,0,107,-15,195,-46r-5,150v-141,42,-327,54,-418,-19v-69,-56,-104,-226,-64,-342v35,-100,59,-130,168,-159v91,-24,132,-33,217,-1v79,29,95,34,129,118v32,77,31,102,20,192xm432,-347v-7,-18,-20,-52,-54,-61v-45,-27,-120,8,-152,22v-9,8,-16,30,-20,66","w":628},"f":{"d":"484,-693r-51,118v-52,0,-104,-1,-143,11v-7,2,-10,14,-10,36r138,0r-13,135r-132,-1r0,50v0,93,4,209,13,350r-182,4v14,-92,7,-285,8,-405r-75,-1r4,-132r78,0v16,-98,16,-124,94,-148v92,-28,166,-34,271,-17","w":464},"g":{"d":"75,-329v0,-179,116,-232,314,-231v37,0,72,6,103,18v29,-22,63,-32,107,-31r124,111v-70,9,-111,16,-123,20v9,23,14,44,14,72v0,148,-92,223,-277,226r-11,33v55,-7,162,-11,205,4v49,17,105,79,105,135v0,94,-181,175,-288,172v-159,-4,-234,-34,-333,-103r94,-107v78,70,194,87,314,74v42,-5,62,-13,39,-38v-27,-30,-49,-22,-133,-26v-67,-3,-114,-5,-139,-13v-30,-10,-45,-26,-45,-48v0,-11,13,-48,38,-109v-72,-41,-108,-94,-108,-159xm327,-268v93,-6,127,-10,126,-103v0,-37,-20,-56,-61,-56v-105,1,-156,7,-156,96v0,41,44,66,91,63","w":738},"h":{"d":"615,-7r-175,33r5,-274v0,-50,-2,-98,-5,-143v-3,-32,-8,-47,-23,-46v-18,1,-78,16,-179,45r9,393r-169,0r-3,-685r165,-25r0,175v73,-15,142,-46,222,-46v67,0,107,39,129,116v22,78,3,343,24,457","w":675},"i":{"d":"263,-611r-84,22r-87,-4v-12,-35,-21,-73,-17,-124v52,-11,111,-17,177,-14xm81,-538v63,7,125,2,171,-17r-1,253r7,306v-72,-14,-85,-6,-176,13","w":338},"j":{"d":"290,-609r-85,24r-86,-5r-17,-53r0,-73v52,-12,110,-18,177,-15xm281,-554v8,172,8,591,-35,617v-71,85,-110,107,-224,166r-116,-102v100,-53,134,-57,188,-133v41,-57,27,-368,20,-538","w":365},"k":{"d":"63,12r4,-530r-2,-158v47,-17,105,-26,174,-26r-8,340v46,-35,117,-105,213,-211r150,61r-199,210r217,275r-138,92r-207,-270r-38,24r7,197v-63,-6,-80,-10,-173,-4","w":627},"l":{"d":"250,-647r-2,653v-58,-8,-108,-3,-170,-4r-3,-678v47,-17,105,-26,173,-26","w":325},"m":{"d":"974,-6r-180,31r5,-267v0,-48,-2,-94,-5,-139v-3,-31,-8,-46,-23,-45v-23,1,-79,16,-170,44v12,88,-6,277,14,376r-175,32r5,-268v0,-48,-2,-94,-5,-139v-3,-31,-8,-46,-23,-45v-27,3,-86,17,-179,44r9,384r-169,0r-3,-534r165,-26r0,36v105,-18,261,-92,325,8v84,-16,159,-52,252,-52v69,0,111,39,133,113v22,74,3,336,24,447","w":1034},"n":{"d":"615,-6r-175,32r5,-268v0,-48,-2,-94,-5,-139v-3,-31,-8,-46,-23,-45v-27,3,-86,17,-179,44r9,384r-169,0r-3,-534r165,-26r0,36v65,-14,156,-44,222,-44v67,0,107,38,129,113v22,76,3,335,24,447","w":675},"o":{"d":"242,-541v194,-58,397,29,397,225v0,78,-43,199,-83,233v-47,40,-168,97,-248,97v-67,0,-186,-58,-212,-99v-23,-37,-60,-117,-61,-170v-2,-70,61,-210,103,-239v25,-17,59,-34,104,-47xm456,-234v25,-85,8,-184,-78,-184v-84,0,-139,19,-162,89v-22,67,-17,107,23,165v10,14,47,39,72,35v73,-11,123,-31,145,-105","w":674},"p":{"d":"395,-563v191,0,228,40,228,238v0,258,-118,323,-377,346r-1,175v-45,3,-100,14,-167,32v1,-50,2,-118,2,-205v0,-138,-2,-323,-5,-555v46,-18,103,-27,171,-27r0,30v59,-23,109,-34,149,-34xm245,-121v161,-19,218,-41,218,-203v0,-94,-1,-93,-89,-98v-10,0,-54,15,-132,44","w":673},"q":{"d":"188,-539v112,-35,152,-33,264,11r0,-27r168,11r-15,586v0,31,33,58,98,82r-120,114v-115,-67,-154,-105,-142,-231v-125,31,-286,31,-341,-49v-37,-54,-58,-216,-48,-315v1,-21,12,-59,33,-116v9,-24,43,-47,103,-66xm449,-381v-116,-38,-97,-45,-179,-31v-51,9,-46,64,-54,84v-6,56,10,168,25,205v53,42,122,18,203,-9","w":723},"r":{"d":"244,-535v88,-32,116,-31,236,-1r-64,155v-21,-14,-39,-34,-69,-45v-27,0,-63,12,-106,36r3,389r-166,0r-3,-531r169,-25r0,22","w":500},"s":{"d":"378,-317v156,49,213,111,134,225v-65,94,-163,106,-335,106v-39,0,-75,-1,-109,-4r-38,-133v85,7,145,10,181,10v108,0,164,-18,169,-53v-136,-40,-316,-52,-320,-199v-2,-75,97,-153,166,-168v64,-14,145,-24,244,-27r55,146v-73,-7,-124,-10,-152,-10v-94,0,-141,19,-141,57v25,22,105,37,146,50","w":576},"t":{"d":"460,-76r-101,127v-139,-62,-180,-72,-225,-159v-22,-85,-3,-219,-6,-322r-88,-1r4,-133r85,0r2,-108r164,-21r-1,129r139,0r-2,135r-137,-1r-2,235v1,44,-2,49,19,69v16,15,66,31,149,50","w":500},"u":{"d":"590,-8r-165,26r0,-36v-65,13,-158,44,-222,44v-67,0,-107,-38,-129,-113v-22,-76,-3,-335,-24,-447r175,-32r-6,268v1,48,3,94,6,139v3,31,8,46,23,45v55,-5,126,-29,179,-44r-9,-384r168,0","w":665},"v":{"d":"687,-535v-94,274,-120,311,-253,537r-151,0v-116,-201,-158,-253,-253,-537r172,-26v34,119,91,269,157,398v61,-127,114,-246,156,-398","w":717},"w":{"d":"947,-539v-71,279,-99,343,-220,538r-150,4r-79,-132v-26,39,-57,81,-94,128r-147,4v-119,-200,-152,-242,-242,-538r172,-26v58,209,75,271,150,399v33,-43,61,-85,82,-127v-24,-60,-52,-142,-84,-246r172,-26v54,196,76,269,144,388v50,-96,91,-225,123,-388","w":962},"x":{"d":"642,-46r-127,84r-171,-174v-72,75,-142,134,-210,177r-99,-96v79,-66,148,-131,205,-195r-201,-248r158,-69r143,200v39,-51,86,-116,140,-196r153,50v-58,94,-122,183,-191,266","w":677},"y":{"d":"356,-153v62,-126,83,-226,100,-406r175,23v-39,249,-71,350,-178,531v-62,104,-76,112,-176,226r-148,-68v69,-72,116,-127,143,-165v-169,-180,-156,-173,-242,-514r171,-32v60,258,47,284,155,405","w":661},"z":{"d":"600,-135r-41,135r-470,0r-49,-99v79,-64,245,-201,323,-318r-298,1r32,-136r462,-4r30,100v-97,132,-188,238,-273,319","w":640},"{":{"d":"298,-36v2,69,6,103,66,106v21,0,49,-5,84,-14r-36,154v-149,-11,-232,-36,-248,-73v-12,-26,-21,-90,-23,-173v-11,-29,-13,-116,-16,-139v-4,-32,-34,-72,-90,-121v55,-49,85,-89,89,-120v3,-21,5,-112,16,-139v-1,-67,4,-130,22,-173v16,-38,101,-62,254,-73r-8,120v-9,-1,-18,-1,-26,-1v-101,-3,-85,33,-85,127v0,11,-12,88,-12,98v0,93,-8,109,-51,161v40,51,49,56,52,145v2,62,11,65,12,115","w":463},"|":{"d":"241,7v-8,56,-90,34,-149,35v-7,-15,-11,-38,-11,-68r-1,-678v67,-23,65,-19,165,-18","w":326},"}":{"d":"166,-555v-6,-101,18,-127,-86,-127v-8,0,-17,0,-26,1r-8,-120v153,9,237,34,254,73v22,55,19,93,23,173v12,41,11,90,15,139v3,32,35,71,90,120v-47,42,-71,56,-85,94v-10,130,-20,129,-23,227v-5,167,-48,158,-270,185r-35,-154v35,9,63,14,84,14v81,1,59,-80,71,-157v17,-106,-1,-154,59,-209v-40,-51,-47,-56,-51,-144v-2,-61,-9,-66,-12,-115","w":463},"~":{"d":"523,-474v-20,13,-219,-104,-226,-101v-30,1,-85,35,-166,103r-86,-127v124,-81,211,-122,260,-122v38,0,164,76,213,104v17,0,68,-41,152,-123r99,119v-120,98,-202,147,-246,147","w":814},"\u00c4":{"d":"598,16v-11,-61,-23,-117,-37,-167r-309,-1v-13,50,-25,106,-36,168r-176,-26v11,-51,24,-99,39,-143r-29,-2r4,-139r73,0v49,-133,134,-275,199,-401r161,-8v113,216,230,430,286,693xm408,-510v-37,63,-72,135,-105,215r208,1v-41,-94,-75,-166,-103,-216xm371,-759r-68,19r-71,-4v-10,-37,-15,-80,-13,-130v42,-10,89,-15,144,-13xm434,-759r68,19r71,-4v10,-37,15,-80,13,-130v-42,-10,-89,-15,-144,-13","w":808},"\u00c5":{"d":"361,-768v1,11,10,37,31,37v37,0,56,-20,56,-59v0,-18,-8,-27,-24,-27v-42,0,-63,16,-63,49xm422,-909v97,-4,171,81,126,179v-14,30,-24,44,-45,57v109,207,216,412,270,663r-175,26v-11,-61,-23,-117,-37,-167r-309,-1v-13,50,-25,106,-36,168r-176,-26v11,-51,24,-99,39,-143r-29,-2r4,-139r73,0v45,-121,122,-253,182,-369v-56,-32,-76,-99,-44,-165v30,-61,76,-78,157,-81xm408,-510v-37,63,-72,135,-105,215r208,1v-41,-94,-75,-166,-103,-216","w":808},"\u00c7":{"d":"447,112v-2,-22,-26,-19,-51,-19v-18,0,-39,2,-63,5r4,-115r123,0r-3,53v77,12,116,36,116,72v0,70,-82,107,-155,105v-33,0,-79,-5,-138,-15r31,-74v24,7,50,10,77,10v24,0,61,0,59,-22xm651,-20v-269,80,-601,23,-601,-256v0,-159,83,-306,190,-364v65,-35,188,-58,369,-63r48,138v-289,10,-333,-5,-401,145v-20,46,-29,88,-29,129v0,114,68,172,203,172v51,0,126,-16,226,-49","w":707},"\u00c9":{"d":"600,-832r-313,107r-86,-78r299,-109xm110,2v-15,-23,-8,-66,-8,-94r0,-137r-57,-1r4,-142r55,1r-3,-328v64,-2,109,-3,136,-3r411,1r2,144r-377,-2v-1,51,-2,114,-2,189v83,0,195,-1,335,-4r-2,144r-333,1r1,97r388,-9r-2,144r-419,-1v-46,5,-88,6,-129,0","w":710},"\u00d1":{"d":"486,-742v-16,7,-135,-51,-145,-50v-31,2,-65,22,-102,63r-54,-105v117,-54,138,-84,241,-32r56,26v17,0,48,-23,92,-70r64,87v-69,54,-119,81,-152,81xm65,-684v55,-24,113,-19,182,-17v77,125,128,207,155,247v59,89,116,168,172,237r1,-101v4,-106,-7,-244,-6,-384v105,-1,105,-5,175,18r-1,619v0,29,-4,52,-11,67v-38,4,-133,1,-164,-4v-145,-123,-213,-229,-333,-411r1,379v0,7,2,20,5,40v-77,-9,-101,3,-164,-4v-7,-15,-11,-38,-11,-67","w":809},"\u00d6":{"d":"391,-759r-68,19r-71,-4v-10,-37,-15,-80,-13,-130v42,-10,89,-15,144,-13xm454,-759r68,19r71,-4v10,-37,15,-80,13,-130v-42,-10,-89,-15,-144,-13xm531,-12v-295,113,-562,-124,-465,-442v42,-138,92,-183,232,-225v113,-34,174,-44,281,-2v98,38,141,72,177,169v35,93,25,161,-2,259v-37,134,-97,193,-223,241xm229,-420v-56,163,47,331,228,278v108,-32,151,-129,151,-251v0,-70,-22,-125,-80,-151v-64,-28,-97,-21,-171,2v-86,26,-101,42,-128,122"},"\u00dc":{"d":"341,-759r-68,19r-71,-4v-10,-37,-15,-80,-13,-130v42,-10,89,-15,144,-13xm404,-759r68,19r71,-4v10,-37,15,-80,13,-130v-42,-10,-89,-15,-144,-13xm256,-118v18,0,212,-51,262,-65r-12,-517r172,0r5,692r-168,26r0,-50v-97,21,-186,66,-293,66v-75,0,-124,-45,-147,-135v-19,-16,-22,-577,-25,-588r176,-31v-4,98,-8,185,-6,260r6,276v3,44,13,66,30,66","w":753},"\u00e1":{"d":"478,-708r-270,128r-73,-94r256,-130xm268,13v-195,-6,-228,6,-228,-171v0,-66,42,-114,127,-145v5,-2,27,21,69,69v42,48,74,70,96,64v32,-9,48,-75,48,-197v0,-39,-4,-59,-12,-59v-50,0,-138,27,-267,66r-51,-126v127,-45,208,-78,344,-78v72,0,115,38,137,111v23,76,3,335,24,447r-173,31r0,-27v-45,10,-83,15,-114,15xm386,-140v0,-26,0,-53,-1,-81v-108,12,-167,28,-176,47v-10,23,-19,41,-6,56v68,-2,120,-6,183,-22","w":620},"\u00e0":{"d":"468,-679r-74,98r-267,-133r86,-100xm382,25r0,-27v-90,27,-277,16,-309,-11v-46,-40,-45,-182,-2,-242v26,-36,56,-62,95,-77v32,-11,104,-26,216,-45r11,-47v0,-3,-2,-5,-5,-4v-111,12,-139,22,-287,66r-50,-124v112,-40,217,-78,343,-78v72,0,113,39,137,111v16,49,10,395,23,447xm385,-242v-107,10,-165,26,-176,48v-1,1,-17,76,-5,78v38,-5,120,-2,182,-22v0,-36,0,-71,-1,-104","w":620},"\u00e2":{"d":"510,-671r-76,91r-128,-93r-131,91r-84,-83r182,-122r68,1xm382,25r0,-27v-90,27,-277,16,-309,-11v-46,-40,-45,-182,-2,-242v26,-36,56,-62,95,-77v32,-11,104,-26,216,-45r11,-47v0,-3,-2,-5,-5,-4v-111,12,-139,22,-287,66r-50,-124v112,-40,217,-78,343,-78v72,0,113,39,137,111v16,49,10,395,23,447xm385,-242v-107,10,-165,26,-176,48v-1,1,-17,76,-5,78v38,-5,120,-2,182,-22v0,-36,0,-71,-1,-104","w":620},"\u00e4":{"d":"266,-635r-68,19r-71,-4v-10,-37,-15,-80,-13,-130v42,-10,89,-15,144,-13xm329,-635r68,19r71,-4v10,-37,15,-80,13,-130v-42,-10,-89,-15,-144,-13xm382,25r0,-27v-90,27,-277,16,-309,-11v-46,-40,-45,-182,-2,-242v26,-36,56,-62,95,-77v32,-11,104,-26,216,-45r11,-47v0,-3,-2,-5,-5,-4v-111,12,-139,22,-287,66r-50,-124v112,-40,217,-78,343,-78v72,0,113,39,137,111v16,49,10,395,23,447xm385,-242v-107,10,-165,26,-176,48v-1,1,-17,76,-5,78v38,-5,120,-2,182,-22v0,-36,0,-71,-1,-104","w":620},"\u00e3":{"d":"365,-586v-14,8,-133,-60,-140,-59v-29,2,-62,26,-99,74r-52,-123v69,-45,121,-68,157,-68v26,-1,100,45,131,62v17,0,46,-28,89,-83r62,102v-67,63,-116,95,-148,95xm268,13v-195,-6,-228,6,-228,-171v0,-66,42,-114,127,-145v5,-2,27,21,69,69v42,48,74,70,96,64v32,-9,48,-75,48,-197v0,-39,-4,-59,-12,-59v-50,0,-138,27,-267,66r-51,-126v127,-45,208,-78,344,-78v72,0,115,38,137,111v23,76,3,335,24,447r-173,31r0,-27v-45,10,-83,15,-114,15xm386,-140v0,-26,0,-53,-1,-81v-108,12,-167,28,-176,47v-10,23,-19,41,-6,56v68,-2,120,-6,183,-22","w":620},"\u00e5":{"d":"314,-819v103,-3,165,95,126,199v-26,68,-84,94,-158,101v-37,4,-97,-30,-112,-53v-36,-55,-41,-95,-15,-158v27,-66,75,-86,159,-89xm252,-662v0,12,10,42,31,41v38,-1,57,-23,57,-66v0,-20,-8,-30,-25,-30v-47,-1,-62,12,-63,55xm382,25r0,-27v-90,27,-277,16,-309,-11v-46,-40,-45,-182,-2,-242v26,-36,56,-62,95,-77v32,-11,104,-26,216,-45r11,-47v0,-3,-2,-5,-5,-4v-111,12,-139,22,-287,66r-50,-124v112,-40,217,-78,343,-78v72,0,113,39,137,111v16,49,10,395,23,447xm385,-242v-107,10,-165,26,-176,48v-1,1,-17,76,-5,78v38,-5,120,-2,182,-22v0,-36,0,-71,-1,-104","w":620},"\u00e7":{"d":"377,113v-2,-23,-24,-18,-51,-20v-20,-1,-41,1,-63,5r4,-125r122,0r-3,58v78,13,117,39,117,78v0,71,-81,114,-154,114v-33,0,-79,-6,-139,-17r31,-80v25,7,51,11,78,11v28,0,59,-1,58,-24xm530,-19v-218,68,-495,23,-495,-204v0,-128,65,-241,152,-288v50,-27,152,-45,306,-50r49,140v-113,1,-239,-13,-286,40v-17,19,-48,107,-48,146v0,75,40,112,121,112v48,0,117,-15,206,-46","w":607},"\u00e9":{"d":"498,-708r-270,128r-73,-94r256,-130xm215,-187v16,56,55,64,129,64v42,0,107,-15,195,-46r-5,150v-141,42,-327,54,-418,-19v-69,-56,-104,-226,-64,-342v35,-100,59,-130,168,-159v91,-24,132,-33,217,-1v79,29,95,34,129,118v32,77,31,102,20,192xm432,-347v-7,-18,-20,-52,-54,-61v-45,-27,-120,8,-152,22v-9,8,-16,30,-20,66","w":658},"\u00e8":{"d":"488,-659r-74,98r-267,-133r86,-100xm215,-187v16,56,55,64,129,64v42,0,107,-15,195,-46r-5,150v-141,42,-327,54,-418,-19v-69,-56,-104,-226,-64,-342v35,-100,59,-130,168,-159v91,-24,132,-33,217,-1v79,29,95,34,129,118v32,77,31,102,20,192xm432,-347v-7,-18,-20,-52,-54,-61v-45,-27,-120,8,-152,22v-9,8,-16,30,-20,66","w":658},"\u00ea":{"d":"560,-661r-76,91r-128,-93r-131,91r-84,-83r182,-122r68,1xm215,-187v16,56,55,64,129,64v42,0,107,-15,195,-46r-5,150v-141,42,-327,54,-418,-19v-69,-56,-104,-226,-64,-342v35,-100,59,-130,168,-159v91,-24,132,-33,217,-1v79,29,95,34,129,118v32,77,31,102,20,192xm432,-347v-7,-18,-20,-52,-54,-61v-45,-27,-120,8,-152,22v-9,8,-16,30,-20,66","w":658},"\u00eb":{"d":"316,-635r-68,19r-71,-4v-10,-37,-15,-80,-13,-130v42,-10,89,-15,144,-13xm379,-635r68,19r71,-4v10,-37,15,-80,13,-130v-42,-10,-89,-15,-144,-13xm215,-187v16,56,55,64,129,64v42,0,107,-15,195,-46r-5,150v-141,42,-327,54,-418,-19v-69,-56,-104,-226,-64,-342v35,-100,59,-130,168,-159v91,-24,132,-33,217,-1v79,29,95,34,129,118v32,77,31,102,20,192xm432,-347v-7,-18,-20,-52,-54,-61v-45,-27,-120,8,-152,22v-9,8,-16,30,-20,66","w":658},"\u00ed":{"d":"271,4v-74,-12,-80,-5,-176,14r-2,-142r2,-211r-2,-210v68,-1,126,-10,173,-28r-2,281xm351,-708r-270,128r-73,-94r256,-130","w":343},"\u00ec":{"d":"262,4v-74,-12,-80,-5,-176,14r-2,-142r2,-211r-2,-210v68,-1,126,-10,173,-28r-2,281xm341,-679r-74,98r-267,-133r86,-100","w":341},"\u00ee":{"d":"298,4v-74,-12,-80,-5,-176,14r-2,-142r2,-211r-2,-210v68,-1,126,-10,173,-28r-2,281xm419,-661r-76,91r-128,-93r-131,91r-84,-83r182,-122r68,1","w":419},"\u00ef":{"d":"261,4v-74,-12,-80,-5,-176,14r-2,-142r2,-211r-2,-210v68,-1,126,-10,173,-28r-2,281xm142,-635r-68,19r-71,-4v-10,-37,-15,-80,-13,-130v42,-10,89,-15,144,-13xm205,-635r68,19r71,-4v10,-37,15,-80,13,-130v-42,-10,-89,-15,-144,-13","w":347},"\u00f1":{"d":"405,-586v-14,8,-133,-60,-140,-59v-29,2,-62,26,-99,74r-52,-123v69,-45,121,-68,157,-68v26,-1,100,45,131,62v17,0,46,-28,89,-83r62,102v-67,63,-116,95,-148,95xm615,-6r-175,32r5,-268v0,-48,-2,-94,-5,-139v-3,-31,-8,-46,-23,-45v-27,3,-86,17,-179,44r9,384r-169,0r-3,-534r165,-26r0,36v65,-14,156,-44,222,-44v67,0,107,38,129,113v22,76,3,335,24,447","w":685},"\u00f3":{"d":"508,-708r-270,128r-73,-94r256,-130xm242,-541v194,-58,397,29,397,225v0,78,-43,199,-83,233v-47,40,-168,97,-248,97v-67,0,-186,-58,-212,-99v-23,-37,-60,-117,-61,-170v-2,-70,61,-210,103,-239v25,-17,59,-34,104,-47xm456,-234v25,-85,8,-184,-78,-184v-84,0,-139,19,-162,89v-22,67,-17,107,23,165v10,14,47,39,72,35v73,-11,123,-31,145,-105","w":674},"\u00f2":{"d":"508,-659r-74,98r-267,-133r86,-100xm242,-541v194,-58,397,29,397,225v0,78,-43,199,-83,233v-47,40,-168,97,-248,97v-67,0,-186,-58,-212,-99v-23,-37,-60,-117,-61,-170v-2,-70,61,-210,103,-239v25,-17,59,-34,104,-47xm456,-234v25,-85,8,-184,-78,-184v-84,0,-139,19,-162,89v-22,67,-17,107,23,165v10,14,47,39,72,35v73,-11,123,-31,145,-105","w":674},"\u00f4":{"d":"242,-541v194,-58,397,29,397,225v0,78,-43,199,-83,233v-47,40,-168,97,-248,97v-67,0,-186,-58,-212,-99v-23,-37,-60,-117,-61,-170v-2,-70,61,-210,103,-239v25,-17,59,-34,104,-47xm456,-234v25,-85,8,-184,-78,-184v-84,0,-139,19,-162,89v-22,67,-17,107,23,165v10,14,47,39,72,35v73,-11,123,-31,145,-105xm550,-661r-76,91r-128,-93r-131,91r-84,-83r182,-122r68,1","w":674},"\u00f6":{"d":"306,-635r-68,19r-71,-4v-10,-37,-15,-80,-13,-130v42,-10,89,-15,144,-13xm369,-635r68,19r71,-4v10,-37,15,-80,13,-130v-42,-10,-89,-15,-144,-13xm242,-541v194,-58,397,29,397,225v0,78,-43,199,-83,233v-47,40,-168,97,-248,97v-67,0,-186,-58,-212,-99v-23,-37,-60,-117,-61,-170v-2,-70,61,-210,103,-239v25,-17,59,-34,104,-47xm456,-234v25,-85,8,-184,-78,-184v-84,0,-139,19,-162,89v-22,67,-17,107,23,165v10,14,47,39,72,35v73,-11,123,-31,145,-105","w":674},"\u00f5":{"d":"405,-586v-14,8,-133,-60,-140,-59v-29,2,-62,26,-99,74r-52,-123v69,-45,121,-68,157,-68v26,-1,100,45,131,62v17,0,46,-28,89,-83r62,102v-67,63,-116,95,-148,95xm242,-541v194,-58,397,29,397,225v0,78,-43,199,-83,233v-47,40,-168,97,-248,97v-67,0,-186,-58,-212,-99v-23,-37,-60,-117,-61,-170v-2,-70,61,-210,103,-239v25,-17,59,-34,104,-47xm456,-234v25,-85,8,-184,-78,-184v-84,0,-139,19,-162,89v-22,67,-17,107,23,165v10,14,47,39,72,35v73,-11,123,-31,145,-105","w":674},"\u00fa":{"d":"498,-708r-270,128r-73,-94r256,-130xm590,-8r-165,26r0,-36v-65,13,-158,44,-222,44v-67,0,-107,-38,-129,-113v-22,-76,-3,-335,-24,-447r175,-32r-6,268v1,48,3,94,6,139v3,31,8,46,23,45v55,-5,126,-29,179,-44r-9,-384r168,0","w":665},"\u00f9":{"d":"488,-659r-74,98r-267,-133r86,-100xm590,-8r-165,26r0,-36v-65,13,-158,44,-222,44v-67,0,-107,-38,-129,-113v-22,-76,-3,-335,-24,-447r175,-32r-6,268v1,48,3,94,6,139v3,31,8,46,23,45v55,-5,126,-29,179,-44r-9,-384r168,0","w":665},"\u00fb":{"d":"530,-671r-76,91r-128,-93r-131,91r-84,-83r182,-122r68,1xm590,-8r-165,26r0,-36v-65,13,-158,44,-222,44v-67,0,-107,-38,-129,-113v-22,-76,-3,-335,-24,-447r175,-32r-6,268v1,48,3,94,6,139v3,31,8,46,23,45v55,-5,126,-29,179,-44r-9,-384r168,0","w":665},"\u00fc":{"d":"286,-635r-68,19r-71,-4v-10,-37,-15,-80,-13,-130v42,-10,89,-15,144,-13xm349,-635r68,19r71,-4v10,-37,15,-80,13,-130v-42,-10,-89,-15,-144,-13xm590,-8r-165,26r0,-36v-65,13,-158,44,-222,44v-67,0,-107,-38,-129,-113v-22,-76,-3,-335,-24,-447r175,-32r-6,268v1,48,3,94,6,139v3,31,8,46,23,45v55,-5,126,-29,179,-44r-9,-384r168,0","w":622},"\u2020":{"d":"333,-515r-87,-12r11,184r-131,2r7,-109r1,-75v-29,2,-56,6,-84,10r3,-134r80,12r-7,-87r132,3r-9,84r81,-12","w":383},"\u00b0":{"d":"221,-727v101,-3,160,93,121,193v-25,65,-80,90,-153,97v-35,3,-95,-30,-108,-51v-35,-56,-40,-90,-15,-152v26,-65,74,-84,155,-87xm154,-575v1,15,12,48,37,46v41,-2,61,-24,61,-71v0,-23,-10,-35,-30,-35v-45,0,-68,20,-68,60","w":406},"\u00a2":{"d":"290,-60v-125,-23,-230,-99,-230,-232v0,-155,105,-289,246,-321r3,-70r148,2r-2,48v22,-1,50,-2,83,-3r49,142r-137,0r-9,300v27,-5,74,-19,139,-42r-5,153v-52,15,-98,24,-138,28r-3,61r-146,-4xm301,-448v-45,62,-68,110,-68,145v0,37,20,68,61,93","w":627},"\u00a3":{"d":"384,-516v-97,7,-112,-16,-115,56v0,11,1,23,2,37r263,-1r11,134r-270,-1r1,151v152,10,133,7,305,-2r6,137r-206,7v-45,0,-101,-13,-168,-3r-145,22r-13,-142v21,2,47,5,68,2v-6,-52,-3,-116,-5,-172r-66,1r-2,-133r68,0r-3,-74v-13,-188,219,-155,394,-151r25,137","w":637},"\u00a7":{"d":"525,-249v54,40,50,106,9,160v-76,99,-262,111,-446,98r-38,-135v130,12,250,11,340,-26v-52,-7,-87,-11,-105,-14v-112,-13,-207,-57,-205,-154v0,-34,15,-65,45,-92v-67,-58,-56,-150,17,-207v90,-69,186,-72,347,-81r56,149v-113,-11,-207,-12,-282,21v-7,4,-11,10,-11,18v17,21,220,54,227,66v98,38,113,125,46,197xm311,-300v36,0,78,-21,90,-28v0,-5,-6,-9,-19,-12v-5,-1,-31,-5,-76,-10v-4,5,-61,11,-54,27v0,15,20,23,59,23","w":616},"\u2022":{"d":"295,-480v85,3,142,76,142,161v0,135,-81,224,-209,232v-43,3,-98,-36,-115,-65v-28,-47,-43,-81,-43,-104v2,-141,82,-228,225,-224","w":507},"\u00b6":{"d":"491,76v-25,2,-16,-10,-16,-47r0,-643r-44,-3v-2,58,-3,159,-3,302v0,35,1,165,2,389v-45,-4,-89,6,-128,1v-5,-69,1,-210,0,-303v-142,-34,-187,-58,-228,-182v-29,-88,-40,-218,26,-258v24,-15,128,-32,151,-40v99,-10,184,1,353,8v4,13,6,22,6,25v-5,119,-7,239,-7,360v0,35,1,165,2,389r-83,-1v-11,2,-22,3,-31,3","w":660},"\u00df":{"d":"378,-704v163,3,265,26,273,164v5,81,-68,146,-157,176v-33,11,-35,21,1,31r96,23v88,21,132,61,132,122v0,167,-210,222,-398,196r-39,-136v102,12,169,14,242,-16v19,-9,29,-19,29,-31v-35,-7,-56,-11,-116,-25v-138,-31,-198,-171,-87,-251v13,-9,49,-27,107,-53v15,-7,22,-17,22,-32v0,-39,-33,-28,-115,-28v-31,0,-68,1,-111,2v-2,68,-3,149,-3,244v0,33,1,141,2,326v-64,-14,-99,4,-159,-5v-7,-15,-11,-38,-11,-67r-1,-620v53,-21,93,-14,154,-16","w":783},"\u00ae":{"d":"384,-670v152,0,268,116,273,275v6,185,-144,312,-319,320v-187,8,-351,-202,-262,-405v42,-95,83,-131,192,-167v47,-15,86,-23,116,-23xm558,-395v0,-83,-80,-182,-174,-186v-52,-2,-150,38,-173,66v-39,48,-62,94,-62,143v0,144,144,255,288,182v74,-38,121,-104,121,-205xm422,-508v80,13,66,160,11,188r50,76r-76,40r-57,-88r-6,2v-3,30,12,75,-24,73v-12,0,-30,-1,-55,-3v-21,-48,2,-131,-9,-289v55,0,117,-7,166,1xm397,-425v-8,-7,-31,-9,-53,-8v-1,18,-1,37,-1,56v47,-16,49,0,54,-48","w":707},"\u00a9":{"d":"385,-670v151,0,267,116,272,275v6,185,-144,312,-319,320v-187,8,-351,-202,-262,-405v42,-95,83,-131,192,-167v48,-15,87,-23,117,-23xm558,-395v0,-83,-80,-182,-174,-186v-52,-2,-150,38,-173,66v-39,48,-62,94,-62,143v0,144,144,255,288,182v74,-38,121,-104,121,-205xm285,-512v28,-18,96,-16,145,-14r37,75v-80,0,-124,3,-131,10v-41,33,-55,138,29,138v17,0,50,-9,99,-26r-3,92v-119,41,-253,9,-253,-114v0,-70,33,-133,77,-161","w":707},"\u2122":{"d":"726,-406r-99,21v-4,-53,-8,-101,-12,-146v-15,41,-31,86,-46,136r-77,-2v-11,-36,-25,-79,-44,-128v-6,49,-11,95,-14,140r-99,-21v11,-132,24,-239,41,-320r91,-7v27,60,48,111,63,153v16,-42,37,-93,64,-153r92,8v26,147,25,141,40,319xm333,-635v-20,-1,-52,-2,-97,-4r1,241v-44,7,-46,3,-102,1r1,-241r-101,3r16,-93r271,-1","w":761},"\u00b4":{"d":"391,-762r-268,133r-73,-98r255,-135","w":441},"\u00a8":{"d":"192,-715r-68,19r-71,-4v-10,-37,-15,-80,-13,-130v42,-10,89,-15,144,-13xm255,-715r68,19r71,-4v10,-37,15,-80,13,-130v-42,-10,-89,-15,-144,-13","w":447},"\u2260":{"d":"440,-197r-2,138r-192,3v-10,20,-19,45,-32,72v-17,35,-42,18,-78,-4v-24,-5,-44,-10,-61,-13v0,-23,3,-42,12,-58r-37,0r4,-136r96,0v3,-7,8,-18,17,-34r-117,0r4,-136r177,0v7,-15,21,-51,44,-107v57,8,71,32,148,29r-32,76r49,1r-2,137r-114,0r-17,33","w":490},"\u00c6":{"d":"1065,-141r-2,145r-556,-1r0,-153v-67,-1,-139,-2,-216,-2v-28,54,-54,110,-77,167r-174,-26v23,-53,47,-100,72,-143r-26,-3r38,-137r70,0v77,-126,200,-275,294,-399v160,-20,384,-4,565,-8r2,144r-377,-2v-1,51,-2,114,-2,189v83,0,195,-1,335,-4r-2,145r-333,0r1,97xm510,-470r-130,175v57,1,99,2,128,2v0,-3,1,-62,2,-177","w":1115},"\u00d8":{"d":"669,-639v94,66,135,237,85,386v-45,133,-94,198,-223,244v-79,28,-143,40,-225,21v-9,14,-15,48,-44,51v-38,-5,-75,-31,-142,-43v0,-31,9,-60,28,-90v-81,-78,-130,-238,-82,-386v45,-139,90,-184,232,-227v79,-24,130,-35,203,-24r27,-50v76,10,88,31,191,28xm526,-172v63,-51,112,-220,59,-324r-104,183r-101,188v40,0,123,-29,146,-47xm421,-561v-123,27,-163,39,-192,140v-21,75,-25,119,6,190"},"\u221e":{"d":"828,-432v84,99,83,193,-9,298v-35,40,-111,70,-185,70v-64,0,-118,-27,-163,-80v-67,83,-162,98,-271,63v-81,-26,-150,-137,-150,-199v0,-93,57,-178,159,-199v114,-24,197,-6,266,69v64,-78,142,-96,256,-70v45,11,78,26,97,48xm735,-279v-9,-51,-23,-65,-114,-62v-23,0,-43,22,-61,66v21,39,46,58,75,58v49,0,91,-19,100,-62xm380,-273v-29,-65,-40,-65,-108,-65v-52,0,-67,30,-67,60v0,9,10,26,31,49v6,7,36,11,81,13v21,0,42,-19,63,-57","w":940},"\u00b1":{"d":"479,-332r-2,126r-117,0r0,102r-146,-3r-1,-99r-120,0r-2,-122r120,-1r1,-103r148,1r0,104xm485,-77r-2,98r-433,0r3,-96","w":535},"\u2264":{"d":"553,-207r-130,63r-351,-136r-6,-62r360,-151r115,67r-261,111xm525,-107r-2,118r-453,0r4,-116","w":603},"\u2265":{"d":"50,-207r130,63r351,-136r6,-62r-360,-151r-115,67r262,111xm78,-107r2,118r453,0r-4,-116","w":603},"\u00a5":{"d":"205,-706v6,133,93,293,172,364v32,-17,88,-137,105,-185v25,-66,41,-125,49,-177r182,23v-63,162,-97,299,-221,421r140,0r-2,143r-169,2r0,113r-165,5r0,-117r-170,-3r-2,-141r133,0v-105,-100,-182,-240,-232,-420","w":738},"\u00b5":{"d":"616,-133v2,57,69,45,110,83r-117,103v-32,-17,-112,-54,-130,-94v-86,43,-149,65,-233,57r-1,111v-45,3,-100,13,-166,31r-4,-690v46,-18,103,-27,170,-27r-4,217v0,21,1,91,4,209v11,5,23,7,37,7v140,-2,175,-61,172,-211v-1,-80,-8,-124,4,-208v75,4,100,-3,164,-27v1,20,1,41,1,63","w":697},"\u2202":{"d":"50,-214v0,-90,89,-215,187,-245v-32,-35,-82,-85,-150,-150r82,-121v120,108,186,142,293,295v73,104,86,140,86,247v0,128,-112,209,-236,206v-149,-2,-262,-87,-262,-232xm296,-115v49,-2,85,-38,85,-91v0,-45,-15,-92,-46,-142v-56,-1,-121,83,-118,142v3,53,42,92,79,91","w":598},"\u03a3":{"d":"697,-150r-40,149r-560,0r-47,-140r281,-207r-274,-253r56,-100r496,-2r25,137r-315,-2r204,186r-5,84r-204,153","w":747},"\u220f":{"d":"676,-559r-67,-3v-5,110,-8,192,-8,247v0,32,1,138,3,318r-168,-1r-4,-571r-152,0r-4,571r-168,3r2,-320v1,-77,0,-159,-3,-248r-72,4r25,-144r294,1v46,0,147,-1,303,-4","w":711},"\u03c0":{"d":"676,-417r-68,-4v-14,160,-4,153,-4,425r-168,-2r-4,-429r-152,0r-3,429r-169,2r2,-310v0,-33,-1,-72,-3,-115r-72,4r26,-142r293,2v33,0,134,-1,303,-4","w":711},"\u222b":{"d":"201,-85r-16,-454v7,-123,39,-129,163,-152v73,-14,114,-12,191,0r-42,119v-27,1,-146,0,-153,15v21,5,-1,187,4,162v-2,105,9,141,11,235v4,193,-43,233,-182,244v-34,3,-78,-4,-113,-6r-27,-130r136,4v16,-1,29,-13,28,-37","w":519},"\u00aa":{"d":"174,-709v134,-34,137,84,131,227v0,19,2,41,6,66r-106,21r0,-13v-15,3,-28,4,-39,4v-101,-4,-116,0,-116,-97v0,-70,66,-84,154,-99v0,-15,-3,-22,-10,-22v-37,7,-49,12,-111,36r-32,-85v44,-18,86,-28,123,-38xm207,-501r0,-18v-41,5,-66,6,-47,25v11,0,27,-2,47,-7","w":361},"\u00ba":{"d":"68,-618v46,-147,308,-125,308,47v0,38,-22,115,-43,130v-45,31,-134,64,-201,29v-64,-16,-82,-70,-82,-132v0,-19,8,-43,18,-74xm154,-546v6,26,5,70,47,61v10,1,51,-11,57,-17v10,-28,29,-100,-9,-120v-29,-15,-54,-3,-80,15v-6,4,-16,50,-15,61","w":426},"\u03a9":{"d":"227,-321v-2,78,71,186,144,186r-6,137r-291,0r-24,-143r73,0v-73,-108,-80,-182,-42,-314v39,-136,91,-183,231,-224v114,-33,175,-43,282,-2v98,38,141,72,176,169v48,129,11,278,-46,370r87,-2r-7,143r-309,-3r-17,-120v109,-39,164,-175,136,-328v-19,-102,-128,-130,-238,-93v-89,30,-109,44,-135,131v-9,35,-14,66,-14,93","w":861},"\u00e6":{"d":"361,-426v-102,15,-106,22,-260,65r-51,-125v137,-47,210,-79,351,-79v49,0,86,15,110,44v108,-38,166,-59,271,-20v79,29,96,36,130,119v32,79,30,109,19,202r-364,43v19,53,17,38,97,51v70,11,113,-11,220,-43r-5,150v-141,40,-284,49,-398,-8v-68,19,-161,40,-213,39v-195,-5,-231,6,-228,-171v1,-79,62,-153,127,-174v32,-10,102,-26,212,-44v-1,-11,-1,-26,-2,-44v-5,-1,-11,-3,-16,-5xm777,-338v-13,-33,-17,-53,-53,-70v-47,-23,-122,7,-154,22v-7,6,-12,32,-14,76xm386,-141v0,-35,0,-68,-1,-100v-89,8,-145,22,-169,41v-15,7,-27,60,-13,81v68,-2,120,-6,183,-22","w":988},"\u00f8":{"d":"136,-42v-61,-36,-101,-130,-101,-212v0,-72,58,-210,102,-244v49,-38,167,-76,261,-69r35,-72v52,8,86,28,167,26v-20,43,-38,78,-53,105v94,71,113,180,71,311v-36,112,-67,144,-175,187v-62,25,-101,34,-161,30v-9,20,-23,47,-40,80v-56,-33,-76,-39,-156,-48xm429,-173v25,-31,53,-121,36,-176r-108,216v34,-11,59,-23,72,-40xm325,-420v-97,10,-148,115,-108,216","w":674},"\u00bf":{"d":"251,-512r75,-19r78,4v11,37,17,79,14,130v-47,10,-99,14,-158,12xm576,117v-62,21,-178,76,-298,71v-130,-6,-152,6,-198,-83v-40,-77,-48,-104,-18,-194v42,-127,32,-85,191,-137v18,0,19,-4,19,-27v0,-15,-2,-36,-5,-64r161,-24v4,67,11,165,-4,204v-34,33,-119,41,-188,64v-11,18,-35,66,-13,93v8,34,22,23,70,23v114,0,90,-14,212,-48","w":616},"\u00a1":{"d":"55,-506r75,-19r78,4v11,37,17,79,14,129v-47,10,-99,14,-158,12xm51,180r11,-350r-2,-160r168,0v-8,169,3,335,9,501","w":282},"\u00ac":{"d":"740,-374r-6,334r-151,-12r-3,-165r-521,2r-9,-158","w":790},"\u221a":{"d":"551,-688r-172,718r-146,20r-98,-188r-61,21r-24,-140r164,-72r60,126r115,-531","w":601},"\u2248":{"d":"196,-424v12,-11,133,79,130,79v17,0,46,-33,85,-98r70,104v-69,87,-119,131,-152,131v-17,10,-133,-75,-138,-75v-19,1,-51,30,-98,87r-58,-116v71,-75,124,-112,161,-112xm326,-145v27,-11,82,-71,102,-101r51,109v-67,86,-117,129,-150,129v-15,10,-133,-76,-138,-75v-27,1,-59,35,-97,101r-59,-130v71,-75,124,-112,161,-112v12,-11,133,79,130,79","w":516},"\u2206":{"d":"675,-109r-23,109r-556,5r-56,-88r244,-456r154,-11xm477,-136r-114,-214r-111,214r225,0","w":715},"\u00ab":{"d":"410,-100r-96,88r-260,-190r-4,-88r266,-211r85,94r-193,156xm690,-100r-96,88r-260,-190r-4,-88r266,-211r85,94r-193,156","w":740},"\u00bb":{"d":"330,-100r96,88r259,-190r5,-88r-266,-211r-85,94r193,156xm50,-100r96,88r259,-190r5,-88r-266,-211r-85,94r193,156","w":740},"\u2026":{"d":"217,-4r-75,22r-78,-4v-11,-44,-17,-93,-14,-150v46,-11,98,-17,158,-14xm447,-4r-75,22r-78,-4v-11,-44,-17,-93,-14,-150v46,-11,98,-17,158,-14xm677,-4r-75,22r-78,-4v-11,-44,-17,-93,-14,-150v46,-11,98,-17,158,-14","w":727},"\u00a0":{"w":270},"\u00c0":{"d":"562,-806r-79,77r-286,-105r92,-80xm598,16v-11,-61,-23,-117,-37,-167r-309,-1v-13,50,-25,106,-36,168r-176,-26v11,-51,